{"learner":{"attributes":{"scikit_learn":"{\"_estimator_type\": \"classifier\"}"},"feature_names":["Gender","SeniorCitizen","Partner","Dependents","Tenure","PhoneService","MultipleLines","OnlineSecurity","OnlineBackup","DeviceProtection","TechSupport","StreamingTV","StreamingMovies","PaperlessBilling","MonthlyCharges","TotalCharges","InternetService_Fiber_optic","InternetService_No","Contract_One_year","Contract_Two_year","PaymentMethod_Credit_card_automatic","PaymentMethod_Electronic_check","PaymentMethod_Mailed_check"],"feature_types":["int","int","int","int","int","int","int","int","int","int","int","int","int","int","float","float","int","int","int","int","int","int","int"],"gradient_booster":{"model":{"cats":{"enc":[],"feature_segments":[],"sorted_idx":[]},"gbtree_model_param":{"num_parallel_tree":"1","num_trees":"350"},"iteration_indptr":[0,1,2,3,4,5,6,7,8,9,10,11,12,13,14,15,16,17,18,19,20,21,22,23,24,25,26,27,28,29,30,31,32,33,34,35,36,37,38,39,40,41,42,43,44,45,46,47,48,49,50,51,52,53,54,55,56,57,58,59,60,61,62,63,64,65,66,67,68,69,70,71,72,73,74,75,76,77,78,79,80,81,82,83,84,85,86,87,88,89,90,91,92,93,94,95,96,97,98,99,100,101,102,103,104,105,106,107,108,109,110,111,112,113,114,115,116,117,118,119,120,121,122,123,124,125,126,127,128,129,130,131,132,133,134,135,136,137,138,139,140,141,142,143,144,145,146,147,148,149,150,151,152,153,154,155,156,157,158,159,160,161,162,163,164,165,166,167,168,169,170,171,172,173,174,175,176,177,178,179,180,181,182,183,184,185,186,187,188,189,190,191,192,193,194,195,196,197,198,199,200,201,202,203,204,205,206,207,208,209,210,211,212,213,214,215,216,217,218,219,220,221,222,223,224,225,226,227,228,229,230,231,232,233,234,235,236,237,238,239,240,241,242,243,244,245,246,247,248,249,250,251,252,253,254,255,256,257,258,259,260,261,262,263,264,265,266,267,268,269,270,271,272,273,274,275,276,277,278,279,280,281,282,283,284,285,286,287,288,289,290,291,292,293,294,295,296,297,298,299,300,301,302,303,304,305,306,307,308,309,310,311,312,313,314,315,316,317,318,319,320,321,322,323,324,325,326,327,328,329,330,331,332,333,334,335,336,337,338,339,340,341,342,343,344,345,346,347,348,349,350],"tree_info":[0,0,0,0,0,0,0,0,0,0,0,0,0,0,0,0,0,0,0,0,0,0,0,0,0,0,0,0,0,0,0,0,0,0,0,0,0,0,0,0,0,0,0,0,0,0,0,0,0,0,0,0,0,0,0,0,0,0,0,0,0,0,0,0,0,0,0,0,0,0,0,0,0,0,0,0,0,0,0,0,0,0,0,0,0,0,0,0,0,0,0,0,0,0,0,0,0,0,0,0,0,0,0,0,0,0,0,0,0,0,0,0,0,0,0,0,0,0,0,0,0,0,0,0,0,0,0,0,0,0,0,0,0,0,0,0,0,0,0,0,0,0,0,0,0,0,0,0,0,0,0,0,0,0,0,0,0,0,0,0,0,0,0,0,0,0,0,0,0,0,0,0,0,0,0,0,0,0,0,0,0,0,0,0,0,0,0,0,0,0,0,0,0,0,0,0,0,0,0,0,0,0,0,0,0,0,0,0,0,0,0,0,0,0,0,0,0,0,0,0,0,0,0,0,0,0,0,0,0,0,0,0,0,0,0,0,0,0,0,0,0,0,0,0,0,0,0,0,0,0,0,0,0,0,0,0,0,0,0,0,0,0,0,0,0,0,0,0,0,0,0,0,0,0,0,0,0,0,0,0,0,0,0,0,0,0,0,0,0,0,0,0,0,0,0,0,0,0,0,0,0,0,0,0,0,0,0,0,0,0,0,0,0,0,0,0,0,0,0,0,0,0,0,0,0,0,0,0,0,0,0,0,0,0,0,0,0,0,0,0,0,0,0,0,0,0,0,0,0,0],"trees":[{"base_weights":[-1.1923393E-2,1.1067281E0,-1.6714294E0,1.4957552E0,-8.2727486E-1,2.3107545E-1,-1.8225899E0,1.5991945E0,1.6471136E-1,-2.836839E-1,-1.0236334E-1,7.639474E-1,-5.5417466E-1,-9.841649E-1,-2.0433984E0,1.7137624E0,9.299794E-1,-8.4856415E-1,1.0995334E0,-1.6804531E0,2.915012E-1,-5.9818853E-2,9.922001E-1,-9.1869764E-2,9.206867E-1,3.2662252E-1,-1.4949023E0,-1.04556344E-1,-1.6238259E0,1.0684392E0,1.7777739E0,-1.4393122E0,1.3402231E0,3.731265E-1,-8.703891E-2,8.00745E-2,2.9645565E-1,-1.0080675E0,-9.30066E-2,5.835957E-1,-6.668289E-2,-2.4489826E-2,1.1794025E0,7.114341E-2,-4.918196E-3,-5.537797E-1,7.7601716E-2,-9.831511E-1,-9.824111E-2,8.288069E-1,-9.4033085E-2,8.9209996E-2,-1.8856397E-2,9.178217E-2,7.837084E-2,-4.918196E-3,-8.80984E-2,7.8457914E-2,2.1343438E-2,4.4072848E-2,-3.8372036E-2,-3.5178255E-2,5.4354377E-2,-5.6123175E-2,-1.5240594E-2,4.5120504E-2,-2.103922E-2,6.807951E-2,1.4667592E-2,5.304065E-3,-7.160936E-2,-8.312401E-2,-1.0449525E-2,5.5770375E-2,7.048537E-3],"categories":[],"categories_nodes":[],"categories_segments":[],"categories_sizes":[],"default_left":[0,0,0,0,0,0,0,0,0,0,0,0,0,0,0,0,0,0,0,0,0,0,0,0,0,0,0,0,0,0,0,0,0,0,0,0,0,0,0,0,0,0,0,0,0,0,0,0,0,0,0,0,0,0,0,0,0,0,0,0,0,0,0,0,0,0,0,0,0,0,0,0,0,0,0],"id":0,"left_children":[1,3,5,7,9,11,13,15,17,19,-1,21,23,25,27,29,31,33,35,37,39,-1,41,-1,43,45,47,-1,49,51,53,55,57,59,-1,-1,61,63,-1,65,-1,-1,67,-1,-1,69,-1,71,-1,73,-1,-1,-1,-1,-1,-1,-1,-1,-1,-1,-1,-1,-1,-1,-1,-1,-1,-1,-1,-1,-1,-1,-1,-1,-1],"loss_changes":[1.7046823E3,4.1393677E2,1.0675427E2,6.2660522E1,6.0764973E1,1.2182616E1,6.1423218E1,3.0910889E1,3.320555E1,5.2832615E1,0E0,8.866259E0,2.429005E1,4.959838E1,2.0168457E0,1.3004272E1,6.4288666E1,1.908546E1,6.8444195E0,4.3860245E-1,2.308926E1,0E0,4.994115E0,0E0,3.3238688E0,2.3935366E1,1.0806068E1,0E0,2.1767365E1,3.695386E1,1.1002197E0,4.13229E0,1.0873589E1,5.292817E0,0E0,0E0,7.2567134E0,1.5838814E-1,0E0,1.3359535E1,0E0,0E0,1.9294987E0,0E0,0E0,7.7936187E0,0E0,1.4039776E1,0E0,5.790844E-1,0E0,0E0,0E0,0E0,0E0,0E0,0E0,0E0,0E0,0E0,0E0,0E0,0E0,0E0,0E0,0E0,0E0,0E0,0E0,0E0,0E0,0E0,0E0,0E0,0E0],"parents":[2147483647,0,0,1,1,2,2,3,3,4,4,5,5,6,6,7,7,8,8,9,9,11,11,12,12,13,13,14,14,15,15,16,16,17,17,18,18,19,19,20,20,22,22,24,24,25,25,26,26,28,28,29,29,30,30,31,31,32,32,33,33,36,36,37,37,39,39,42,42,45,45,47,47,49,49],"right_children":[2,4,6,8,10,12,14,16,18,20,-1,22,24,26,28,30,32,34,36,38,40,-1,42,-1,44,46,48,-1,50,52,54,56,58,60,-1,-1,62,64,-1,66,-1,-1,68,-1,-1,70,-1,72,-1,74,-1,-1,-1,-1,-1,-1,-1,-1,-1,-1,-1,-1,-1,-1,-1,-1,-1,-1,-1,-1,-1,-1,-1,-1,-1],"split_conditions":[1E0,4.4E1,4E0,1E0,1E0,2E0,1E0,2.5E1,7.365E1,8.245939E1,-1.0236334E-1,1E0,5.6876766E1,3E1,1E0,4.495652E1,1.91215E3,7.7153094E2,2.2E1,5.1E1,6.7E1,-5.9818853E-2,1.96E1,-9.1869764E-2,1E0,8.207368E1,5.9E1,-1.04556344E-1,2.8E1,1.092E2,1.1E1,8.655821E2,1E0,1E0,-8.703891E-2,8.00745E-2,9.552805E1,1E0,-9.30066E-2,1E0,-6.668289E-2,-2.4489826E-2,2.095E1,7.114341E-2,-4.918196E-3,8.918289E2,7.7601716E-2,1E0,-9.824111E-2,1.6E1,-9.4033085E-2,8.9209996E-2,-1.8856397E-2,9.178217E-2,7.837084E-2,-4.918196E-3,-8.80984E-2,7.8457914E-2,2.1343438E-2,4.4072848E-2,-3.8372036E-2,-3.5178255E-2,5.4354377E-2,-5.6123175E-2,-1.5240594E-2,4.5120504E-2,-2.103922E-2,6.807951E-2,1.4667592E-2,5.304065E-3,-7.160936E-2,-8.312401E-2,-1.0449525E-2,5.5770375E-2,7.048537E-3],"split_indices":[7,4,4,10,19,4,10,4,14,14,0,4,15,4,16,14,15,15,4,4,4,0,14,0,22,14,4,0,4,15,4,15,8,8,0,0,14,21,0,10,0,0,14,0,0,15,0,16,0,4,0,0,0,0,0,0,0,0,0,0,0,0,0,0,0,0,0,0,0,0,0,0,0,0,0],"split_type":[0,0,0,0,0,0,0,0,0,0,0,0,0,0,0,0,0,0,0,0,0,0,0,0,0,0,0,0,0,0,0,0,0,0,0,0,0,0,0,0,0,0,0,0,0,0,0,0,0,0,0,0,0,0,0,0,0,0,0,0,0,0,0,0,0,0,0,0,0,0,0,0,0,0,0],"sum_hessian":[9.162722E2,5.475255E2,3.6874673E2,4.5602258E2,9.15029E1,2.710276E1,3.4164398E2,4.2295224E2,3.307034E1,6.415149E1,2.735141E1,1.6162197E1,1.0940564E1,7.235691E1,2.6928705E2,3.5979535E2,6.315689E1,1.59135475E1,1.7156794E1,1.815139E1,4.60001E1,1.2432458E0,1.4918951E1,5.718931E0,5.221633E0,2.0389233E1,5.1967678E1,2.3820592E2,3.1081148E1,3.4064938E1,3.2573044E2,8.95137E0,5.420552E1,6.9621773E0,8.95137E0,9.945967E0,7.2108264E0,5.221633E0,1.2929757E1,3.953522E1,6.4648786E0,1.4918951E0,1.3427055E1,3.2324393E0,1.9891934E0,1.218381E1,8.205423E0,2.6356813E1,2.5610865E1,2.735141E0,2.8346006E1,2.2627075E1,1.1437862E1,2.4939513E2,7.63353E1,1.9891934E0,6.9621773E0,4.276766E1,1.1437862E1,4.9729834E0,1.9891934E0,3.2324393E0,3.9783869E0,3.9783869E0,1.2432458E0,3.0086552E1,9.4486685E0,1.0691915E1,2.735141E0,7.4594755E0,4.7243342E0,1.3427055E1,1.2929757E1,1.4918951E0,1.2432458E0],"tree_param":{"num_deleted":"0","num_feature":"23","num_nodes":"75","size_leaf_vector":"1"}},{"base_weights":[-1.9501576E-3,1.0189409E0,-1.5790739E0,1.3741434E0,-2.5414827E-1,6.7251724E-1,-1.6747288E0,5.440135E-1,1.6690238E0,5.1847976E-1,-1.0168904E0,-4.4379643E-1,1.2497061E0,-1.8893905E0,-7.5473636E-1,1.5246911E0,-7.3513174E-1,8.8451855E-2,1.4959044E0,-8.7429345E-1,1.007173E0,-9.039619E-2,-3.2114008E-1,1.06914215E-1,-6.2694006E-2,6.952493E-2,5.7706027E-3,-1.3452705E0,-1.9719173E0,9.576153E-1,-1.4191164E0,8.355343E-2,1.037726E0,-7.306584E-2,-1.6173935E0,7.380278E-1,1.6526164E0,6.484146E-1,-8.451605E-2,1.2513584E0,-4.749387E-1,2.1881953E-1,-8.715015E-2,-4.3777846E-2,4.4607542E-2,1.025272E0,-1.7107321E0,-1.3367541E0,-9.964504E-2,1.5020063E0,-5.65882E-2,-9.6353084E-1,-9.586578E-2,-2.7575273E-2,7.313752E-2,2.2062294E-2,-8.100361E-2,-9.5862314E-2,-4.7552064E-2,5.022653E-2,-2.9656861E-2,6.087339E-2,8.5430376E-2,-4.1785445E-2,6.3231304E-2,7.541007E-2,2.8311742E-2,1.9332606E-2,-7.515381E-2,-2.9346947E-2,2.6810108E-2,7.24063E-2,-1.61794E-2,-3.0272797E-2,-9.705403E-2,-8.9320704E-2,-1.1210485E-2,2.0339994E-2,8.192848E-2,-4.538777E-2,3.8157143E-2,-7.746395E-2,-2.3016608E-3],"categories":[],"categories_nodes":[],"categories_segments":[],"categories_sizes":[],"default_left":[0,0,0,0,0,0,0,0,0,0,0,0,0,0,0,0,0,0,0,0,0,0,0,0,0,0,0,0,0,0,0,0,0,0,0,0,0,0,0,0,0,0,0,0,0,0,0,0,0,0,0,0,0,0,0,0,0,0,0,0,0,0,0,0,0,0,0,0,0,0,0,0,0,0,0,0,0,0,0,0,0,0,0],"id":1,"left_children":[1,3,5,7,9,11,13,15,17,19,21,23,25,27,29,31,33,-1,35,37,39,-1,41,43,-1,-1,-1,45,47,49,51,-1,53,55,57,59,61,63,-1,65,67,69,-1,-1,-1,71,73,75,-1,77,79,81,-1,-1,-1,-1,-1,-1,-1,-1,-1,-1,-1,-1,-1,-1,-1,-1,-1,-1,-1,-1,-1,-1,-1,-1,-1,-1,-1,-1,-1,-1,-1],"loss_changes":[1.4735762E3,2.5158838E2,7.8583374E1,1.0546387E2,7.2448616E1,1.0457493E1,6.675995E1,1.458616E2,2.8971558E0,4.259724E1,3.340515E1,2.8001835E0,1.4993134E0,9.888245E0,7.756494E1,2.9445496E0,2.9523865E1,0E0,1.3473267E1,2.1542467E1,1.7182663E1,0E0,2.6539017E1,4.2366257E0,0E0,0E0,0E0,3.6344536E1,5.3948975E-1,1.0753027E1,9.197868E0,0E0,1.2835634E1,2.4614859E1,2.5140953E0,8.756856E0,3.9785767E-1,6.968569E0,0E0,6.119171E0,6.966555E0,6.8568087E0,0E0,0E0,0E0,3.867169E0,7.727722E0,4.9642277E0,0E0,1.219347E0,6.073965E0,1.4669674E1,0E0,0E0,0E0,0E0,0E0,0E0,0E0,0E0,0E0,0E0,0E0,0E0,0E0,0E0,0E0,0E0,0E0,0E0,0E0,0E0,0E0,0E0,0E0,0E0,0E0,0E0,0E0,0E0,0E0,0E0,0E0],"parents":[2147483647,0,0,1,1,2,2,3,3,4,4,5,5,6,6,7,7,8,8,9,9,10,10,11,11,12,12,13,13,14,14,15,15,16,16,18,18,19,19,20,20,22,22,23,23,27,27,28,28,29,29,30,30,32,32,33,33,34,34,35,35,36,36,37,37,39,39,40,40,41,41,45,45,46,46,47,47,49,49,50,50,51,51],"right_children":[2,4,6,8,10,12,14,16,18,20,22,24,26,28,30,32,34,-1,36,38,40,-1,42,44,-1,-1,-1,46,48,50,52,-1,54,56,58,60,62,64,-1,66,68,70,-1,-1,-1,72,74,76,-1,78,80,82,-1,-1,-1,-1,-1,-1,-1,-1,-1,-1,-1,-1,-1,-1,-1,-1,-1,-1,-1,-1,-1,-1,-1,-1,-1,-1,-1,-1,-1,-1,-1],"split_conditions":[1E0,2.88225E3,2.445E1,6.625E1,1E0,1.9821432E1,1E0,3.106E2,7.7153094E2,8.1E1,9.464842E1,1.985E1,2.08E1,1E0,3.7765593E3,1.092E2,1.2501E3,8.8451855E-2,7.58E1,3.2336E3,1E0,-9.039619E-2,6.9973E3,1.945E1,-6.2694006E-2,6.952493E-2,5.7706027E-3,3.106E2,7.903067E1,2.04475E3,6.9973E3,8.355343E-2,3.866381E1,1E0,2.01055E3,7.4568886E1,8.3119995E1,6.905E1,-8.451605E-2,1E0,4.29535E3,9.925E1,-8.715015E-2,-4.3777846E-2,4.4607542E-2,5.525E1,1.20015E3,5.6876766E1,-9.964504E-2,8.3119995E1,9.552805E1,1.053198E2,-9.586578E-2,-2.7575273E-2,7.313752E-2,2.2062294E-2,-8.100361E-2,-9.5862314E-2,-4.7552064E-2,5.022653E-2,-2.9656861E-2,6.087339E-2,8.5430376E-2,-4.1785445E-2,6.3231304E-2,7.541007E-2,2.8311742E-2,1.9332606E-2,-7.515381E-2,-2.9346947E-2,2.6810108E-2,7.24063E-2,-1.61794E-2,-3.0272797E-2,-9.705403E-2,-8.9320704E-2,-1.1210485E-2,2.0339994E-2,8.192848E-2,-4.538777E-2,3.8157143E-2,-7.746395E-2,-2.3016608E-3],"split_indices":[10,15,15,14,8,15,16,15,15,14,14,14,14,9,15,15,15,0,14,15,3,0,15,14,0,0,0,15,15,15,15,0,14,3,15,14,14,14,0,0,15,14,0,0,0,14,15,15,0,14,14,14,0,0,0,0,0,0,0,0,0,0,0,0,0,0,0,0,0,0,0,0,0,0,0,0,0,0,0,0,0,0,0],"split_type":[0,0,0,0,0,0,0,0,0,0,0,0,0,0,0,0,0,0,0,0,0,0,0,0,0,0,0,0,0,0,0,0,0,0,0,0,0,0,0,0,0,0,0,0,0,0,0,0,0,0,0,0,0,0,0,0,0,0,0,0,0,0,0,0,0,0,0,0,0,0,0,0,0,0,0,0,0,0,0,0,0,0,0],"sum_hessian":[9.132247E2,5.5458746E2,3.5863718E2,4.3354535E2,1.2104214E2,1.4369412E1,3.442678E2,1.14383766E2,3.191616E2,6.0290478E1,6.075166E1,4.9762297E0,9.393183E0,2.7828247E2,6.5985306E1,6.463689E1,4.9746883E1,1.9645073E2,1.22710846E2,1.5454937E1,4.483554E1,2.7681105E1,3.3070553E1,3.4790943E0,1.4971352E0,8.155076E0,1.2381065E0,3.892714E1,2.3935533E2,1.832183E1,4.766347E1,4.782846E1,1.6808426E1,2.9038591E1,2.0708292E1,2.2004436E1,1.0070641E2,5.4641776E0,9.99076E0,3.8627205E1,6.208336E0,2.4581652E1,8.488903E0,1.4943601E0,1.9847342E0,4.958532E0,3.396861E1,9.723799E0,2.2963153E2,1.1609346E1,6.7124853E0,2.6429056E1,2.1234413E1,3.4839225E0,1.3324504E1,2.2329714E1,6.7088766E0,1.2987019E1,7.7212744E0,1.853838E1,3.4660568E0,1.4073645E1,8.663277E1,1.4986137E0,3.9655638E0,2.7221062E1,1.1406142E1,3.7172055E0,2.4911306E0,6.7063985E0,1.7875252E1,3.7190537E0,1.2394781E0,6.4841723E0,2.7484434E1,6.493573E0,3.2302256E0,1.7282227E0,9.881124E0,3.2404175E0,3.4720678E0,1.5710549E1,1.0718508E1],"tree_param":{"num_deleted":"0","num_feature":"23","num_nodes":"83","size_leaf_vector":"1"}},{"base_weights":[3.57535E-2,1.0101902E0,-1.4756908E0,1.1621208E0,-9.319145E-2,7.79896E-1,-1.5792882E0,1.3493904E0,-1.0951519E0,1.0646071E0,-6.2259562E-2,-1.789104E0,-6.82535E-1,1.4331136E0,3.7104994E-1,-1.5973966E0,-3.4819907E-1,-3.5557784E-2,1.2772202E0,-1.2710146E0,-9.347796E-2,1.0273355E0,-1.4261494E0,1.4966295E0,4.859812E-1,-6.6419536E-1,8.984888E-1,-8.747523E-2,-9.0296936E-1,2.3920502E-1,-1.1503488E0,1.9122498E-2,6.865665E-2,3.3182517E-2,-1.6928267E0,1.1782669E0,-3.7757933E-2,-1.0327977E0,-9.337781E-2,7.694115E-2,3.0482149E-2,-9.0358695E-3,4.684998E-2,4.696689E-2,-8.077657E-2,7.136702E-2,-1.4027356E-2,2.6420966E-2,-8.252264E-2,2.0183431E-2,-2.475986E-2,-1.07577415E-2,-7.4658036E-2,2.5004668E-2,-4.9771387E-2,-8.72229E-2,-2.662918E-2,7.017978E-2,1.109885E-2,-7.5006716E-2,-2.019376E-2],"categories":[],"categories_nodes":[],"categories_segments":[],"categories_sizes":[],"default_left":[0,0,0,0,0,0,0,0,0,0,0,0,0,0,0,0,0,0,0,0,0,0,0,0,0,0,0,0,0,0,0,0,0,0,0,0,0,0,0,0,0,0,0,0,0,0,0,0,0,0,0,0,0,0,0,0,0,0,0,0,0],"id":2,"left_children":[1,3,5,7,-1,9,11,13,15,17,-1,19,21,23,25,27,29,-1,31,33,-1,35,37,39,41,43,45,-1,47,49,51,-1,-1,53,55,57,-1,59,-1,-1,-1,-1,-1,-1,-1,-1,-1,-1,-1,-1,-1,-1,-1,-1,-1,-1,-1,-1,-1,-1,-1],"loss_changes":[1.3555908E3,2.4651599E2,8.554114E1,2.2641437E2,0E0,1.0846485E1,6.374585E1,3.9751587E1,1.4943661E1,6.5778694E0,0E0,9.261658E0,8.676466E1,2.650531E1,2.2502628E1,1.0003242E0,8.704711E0,0E0,6.5647125E-1,2.2420532E1,0E0,6.5164185E0,6.2616425E0,1.4920837E1,9.169251E0,2.3051182E1,1.7237566E1,0E0,7.7792506E0,1.5472564E0,2.1584759E0,0E0,0E0,5.740344E0,9.122391E-1,3.9273796E0,0E0,7.383198E0,0E0,0E0,0E0,0E0,0E0,0E0,0E0,0E0,0E0,0E0,0E0,0E0,0E0,0E0,0E0,0E0,0E0,0E0,0E0,0E0,0E0,0E0,0E0],"parents":[2147483647,0,0,1,1,2,2,3,3,5,5,6,6,7,7,8,8,9,9,11,11,12,12,13,13,14,14,15,15,16,16,18,18,19,19,21,21,22,22,23,23,24,24,25,25,26,26,28,28,29,29,30,30,33,33,34,34,35,35,37,37],"right_children":[2,4,6,8,-1,10,12,14,16,18,-1,20,22,24,26,28,30,-1,32,34,-1,36,38,40,42,44,46,-1,48,50,52,-1,-1,54,56,58,-1,60,-1,-1,-1,-1,-1,-1,-1,-1,-1,-1,-1,-1,-1,-1,-1,-1,-1,-1,-1,-1,-1,-1,-1],"split_conditions":[1E0,1E0,2.445E1,1E0,-9.319145E-2,2.095E1,1E0,1E0,9.475162E1,1.945E1,-6.2259562E-2,1E0,3.4195E3,1E0,1E0,7.928374E1,6.2794497E3,-3.5557784E-2,1E0,9.4775E2,-9.347796E-2,1E0,6.9973E3,1E0,7.630318E1,2.4283014E2,2.7192E3,-8.747523E-2,4.0863E3,1.056E2,1E0,1.9122498E-2,6.865665E-2,1E0,7.945E1,1E0,-3.7757933E-2,9.981812E1,-9.337781E-2,7.694115E-2,3.0482149E-2,-9.0358695E-3,4.684998E-2,4.696689E-2,-8.077657E-2,7.136702E-2,-1.4027356E-2,2.6420966E-2,-8.252264E-2,2.0183431E-2,-2.475986E-2,-1.07577415E-2,-7.4658036E-2,2.5004668E-2,-4.9771387E-2,-8.72229E-2,-2.662918E-2,7.017978E-2,1.109885E-2,-7.5006716E-2,-2.019376E-2],"split_indices":[7,19,15,18,0,14,16,3,14,14,0,10,15,10,16,14,15,0,22,15,0,18,15,20,14,15,15,0,15,14,9,0,0,3,14,9,0,14,0,0,0,0,0,0,0,0,0,0,0,0,0,0,0,0,0,0,0,0,0,0,0],"split_type":[0,0,0,0,0,0,0,0,0,0,0,0,0,0,0,0,0,0,0,0,0,0,0,0,0,0,0,0,0,0,0,0,0,0,0,0,0,0,0,0,0,0,0,0,0,0,0,0,0,0,0,0,0,0,0,0,0,0,0,0,0],"sum_hessian":[9.1840094E2,5.586E2,3.5980096E2,5.311189E2,2.748113E1,1.5513056E1,3.442879E2,4.9080273E2,4.031614E1,1.4016709E1,1.496347E0,2.7820132E2,6.608658E1,4.5168423E2,3.911851E1,2.3426086E1,1.689005E1,1.248051E0,1.2768659E1,3.9653156E1,2.3854816E2,1.991421E1,4.617237E1,4.2275366E2,2.8930557E1,1.31158085E1,2.60027E1,1.797047E1,5.4556174E0,1.015527E1,6.734781E0,1.7190568E0,1.1049602E1,9.915831E0,2.9737328E1,1.8672138E1,1.2420703E0,2.6181229E1,1.999114E1,4.0285516E2,1.9898506E1,1.1915821E1,1.7014736E1,4.8885245E0,8.227284E0,1.7805513E1,8.197187E0,1.972143E0,3.4834743E0,8.665127E0,1.490143E0,2.2431276E0,4.4916534E0,7.173447E0,2.742383E0,2.7988312E1,1.7490156E0,1.4732901E1,3.9392385E0,1.4225428E1,1.1955802E1],"tree_param":{"num_deleted":"0","num_feature":"23","num_nodes":"61","size_leaf_vector":"1"}},{"base_weights":[-9.928461E-3,9.305611E-1,-1.427552E0,1.314217E0,-6.336884E-1,2.7560514E-1,-1.5866437E0,1.3712039E0,-1.0569681E0,-1.4913576E0,-3.414583E-2,-7.108743E-2,4.831725E-1,-1.7553633E0,-8.228319E-1,7.9395497E-1,1.5442874E0,-7.906044E-2,-1.7735825E-1,-7.899708E-1,-8.790431E-2,5.4495573E-1,-1.1480204E0,6.8895054E-1,-6.889086E-2,-1.3942982E0,-9.06882E-2,6.8728155E-1,-1.484911E0,1.5320396E0,-4.5359093E-1,8.238869E-2,1.3527986E0,3.587487E-2,-7.279471E-1,-8.349737E-2,-4.0984344E-2,9.1989595E-1,-4.707089E-1,-5.968654E-1,-1.5489911E0,1.6802365E-1,6.511233E-2,-1.6822523E0,-9.2059635E-2,-3.6833677E-1,9.752204E-1,-7.999725E-1,-1.6838903E0,7.726287E-2,2.2925679E-2,1.7708195E-2,-5.790959E-2,-1.15532605E-2,6.901892E-2,-5.747489E-2,3.58717E-3,3.5407748E-2,-6.099541E-2,5.5695146E-2,-6.710004E-2,-6.5740176E-2,1.6232293E-2,-7.121494E-2,1.8539017E-2,-3.705228E-2,-8.63064E-2,4.6352915E-2,-4.2814042E-2,-9.048848E-2,-4.24213E-2,5.4888036E-2,-2.4352556E-2,-6.329552E-2,1.9387271E-2,6.791365E-2,-6.519834E-3,-7.209145E-2,1.7833224E-2,-2.0625727E-2,-8.9298636E-2],"categories":[],"categories_nodes":[],"categories_segments":[],"categories_sizes":[],"default_left":[0,0,0,0,0,0,0,0,0,0,0,0,0,0,0,0,0,0,0,0,0,0,0,0,0,0,0,0,0,0,0,0,0,0,0,0,0,0,0,0,0,0,0,0,0,0,0,0,0,0,0,0,0,0,0,0,0,0,0,0,0,0,0,0,0,0,0,0,0,0,0,0,0,0,0,0,0,0,0,0,0],"id":3,"left_children":[1,3,5,7,9,11,13,15,17,19,21,-1,23,25,27,29,31,-1,33,35,-1,37,39,41,-1,43,-1,45,47,49,51,-1,53,-1,55,-1,57,59,61,63,65,67,-1,69,71,73,75,77,79,-1,-1,-1,-1,-1,-1,-1,-1,-1,-1,-1,-1,-1,-1,-1,-1,-1,-1,-1,-1,-1,-1,-1,-1,-1,-1,-1,-1,-1,-1,-1,-1],"loss_changes":[1.219551E3,3.308482E2,9.92865E1,6.116455E1,5.5988937E1,1.1967382E1,4.15719E1,4.193445E1,4.7625275E0,6.9952316E0,4.2661488E1,0E0,1.2160349E1,3.2175903E0,6.3283848E1,9.434574E1,4.3356323E0,0E0,3.089372E0,9.266411E0,0E0,1.7019005E1,4.072876E0,8.415964E0,0E0,1.5694237E1,0E0,6.336399E0,4.596466E0,2.0144653E-1,2.23662E1,0E0,5.6398926E0,0E0,1.3371843E0,0E0,8.526543E0,1.56027775E1,8.754826E0,9.455457E0,5.045414E-1,1.3048787E1,0E0,2.138626E0,4.628785E0,3.8434882E0,6.836628E0,9.216686E0,3.5316238E0,0E0,0E0,0E0,0E0,0E0,0E0,0E0,0E0,0E0,0E0,0E0,0E0,0E0,0E0,0E0,0E0,0E0,0E0,0E0,0E0,0E0,0E0,0E0,0E0,0E0,0E0,0E0,0E0,0E0,0E0,0E0,0E0],"parents":[2147483647,0,0,1,1,2,2,3,3,4,4,5,5,6,6,7,7,8,8,9,9,10,10,12,12,13,13,14,14,15,15,16,16,18,18,19,19,21,21,22,22,23,23,25,25,27,27,28,28,29,29,30,30,32,32,34,34,36,36,37,37,38,38,39,39,40,40,41,41,43,43,44,44,45,45,46,46,47,47,48,48],"right_children":[2,4,6,8,10,12,14,16,18,20,22,-1,24,26,28,30,32,-1,34,36,-1,38,40,42,-1,44,-1,46,48,50,52,-1,54,-1,56,-1,58,60,62,64,66,68,-1,70,72,74,76,78,80,-1,-1,-1,-1,-1,-1,-1,-1,-1,-1,-1,-1,-1,-1,-1,-1,-1,-1,-1,-1,-1,-1,-1,-1,-1,-1,-1,-1,-1,-1,-1,-1],"split_conditions":[1E0,3.9E1,4E0,1E0,8.3484344E1,1.94E1,1E0,6.625E1,1E0,5E1,6.2E1,-7.108743E-2,1E0,1.6E1,4.5E1,6E0,1.1E1,-7.906044E-2,2.3E1,2.3171E3,-8.790431E-2,1E0,6.7E1,2.05E1,-6.889086E-2,4.06E1,-9.06882E-2,9.01E1,1E0,5.97E1,1E0,8.238869E-2,8.918289E2,3.587487E-2,7.945E1,-8.349737E-2,3.2336E3,1E0,5.32725E3,6.8413E3,1E0,2E0,6.511233E-2,2.7476584E2,4.96E1,1E0,1.053198E2,1.053198E2,4.9E1,7.726287E-2,2.2925679E-2,1.7708195E-2,-5.790959E-2,-1.15532605E-2,6.901892E-2,-5.747489E-2,3.58717E-3,3.5407748E-2,-6.099541E-2,5.5695146E-2,-6.710004E-2,-6.5740176E-2,1.6232293E-2,-7.121494E-2,1.8539017E-2,-3.705228E-2,-8.63064E-2,4.6352915E-2,-4.2814042E-2,-9.048848E-2,-4.24213E-2,5.4888036E-2,-2.4352556E-2,-6.329552E-2,1.9387271E-2,6.791365E-2,-6.519834E-3,-7.209145E-2,1.7833224E-2,-2.0625727E-2,-8.9298636E-2],"split_indices":[10,4,4,18,14,14,16,14,12,4,4,0,19,4,4,4,4,0,4,15,0,18,4,14,0,14,0,14,9,14,6,0,15,0,14,0,15,19,15,15,9,4,0,15,14,0,14,14,4,0,0,0,0,0,0,0,0,0,0,0,0,0,0,0,0,0,0,0,0,0,0,0,0,0,0,0,0,0,0,0,0],"split_type":[0,0,0,0,0,0,0,0,0,0,0,0,0,0,0,0,0,0,0,0,0,0,0,0,0,0,0,0,0,0,0,0,0,0,0,0,0,0,0,0,0,0,0,0,0,0,0,0,0,0,0,0,0,0,0,0,0,0,0,0,0,0,0,0,0,0,0,0,0,0,0,0,0,0,0,0,0,0,0,0,0],"sum_hessian":[9.1271704E2,5.489033E2,3.638137E2,4.4092072E2,1.0798262E2,3.101801E1,3.327957E2,4.3098456E2,9.936174E0,4.3815434E1,6.416719E1,2.7424476E0,2.8275562E1,2.7152084E2,6.1274837E1,1.0070653E2,3.30278E2,5.7259355E0,4.210239E0,1.3163235E1,3.0652199E1,4.2554127E1,2.1613064E1,2.602739E1,2.2481725E0,4.1265984E1,2.3025485E2,1.866482E1,4.2610016E1,6.3129326E1,3.7577198E1,2.094693E2,1.20808716E2,1.4882634E0,2.7219756E0,5.487003E0,7.6762314E0,3.1149387E1,1.1404739E1,1.0149964E1,1.14630995E1,1.4762366E1,1.1265024E1,3.3554516E1,7.71147E0,3.9402332E0,1.4724587E1,1.0722113E1,3.1887903E1,6.192743E1,1.2018964E0,1.7738792E1,1.9838406E1,1.9413576E0,1.18867355E2,1.4959623E0,1.2260133E0,4.9378366E0,2.7383947E0,2.9156147E1,1.9932402E0,5.215998E0,6.188741E0,5.216995E0,4.93297E0,2.9933739E0,8.469726E0,8.533657E0,6.228709E0,2.8088495E1,5.4660196E0,1.4785326E0,6.232938E0,1.4932442E0,2.446989E0,1.0766054E1,3.9585335E0,6.736972E0,3.9851408E0,2.7447424E0,2.9143162E1],"tree_param":{"num_deleted":"0","num_feature":"23","num_nodes":"81","size_leaf_vector":"1"}},{"base_weights":[1.1692744E-3,9.453438E-1,-1.3819396E0,1.2920718E0,-1.4687702E-1,6.888203E-1,-1.4711794E0,6.855807E-1,1.5196482E0,-1.4830706E0,3.4331235E-1,9.689233E-1,-5.972987E-2,-7.8489894E-1,-1.662871E0,1.3865757E0,-3.871393E-1,7.831919E-2,1.2974558E0,-8.4943295E-1,-8.609334E-2,9.0058124E-1,-6.279381E-1,1.659338E-1,6.1627615E-2,-1.2545885E0,6.7115925E-2,-1.7149456E0,-1.3286704E0,7.691374E-2,8.7735444E-1,2.8800762E-1,-9.706969E-1,6.7124404E-3,1.4020182E0,-7.3624186E-2,1.4204863E-1,1.0698367E0,-1.7811708E-1,-7.961942E-2,-2.0623234E-1,2.2460284E-2,-1.747869E-2,6.136082E-1,-1.5021589E0,1.0365456E0,-9.080928E-1,-9.619207E-1,-8.677723E-2,1.4120725E-1,-1.5074831E0,-4.334736E-2,6.397622E-2,7.323924E-2,-9.254477E-3,-2.1900592E-2,-8.108227E-2,-6.839105E-2,3.7226353E-2,4.4130895E-2,7.6680675E-2,4.1885894E-2,-2.4794688E-2,6.1541017E-2,-4.6427405E-4,4.194207E-2,-3.981641E-2,1.4483494E-2,-6.823968E-2,-2.881486E-3,6.270978E-2,-3.0579526E-2,-8.211689E-2,7.26397E-2,2.329611E-2,-7.5156435E-2,-1.38080465E-2,-7.925078E-2,5.791692E-2,-3.3612862E-2,3.5332065E-2,-5.5178113E-2,-8.6223036E-2],"categories":[],"categories_nodes":[],"categories_segments":[],"categories_sizes":[],"default_left":[0,0,0,0,0,0,0,0,0,0,0,0,0,0,0,0,0,0,0,0,0,0,0,0,0,0,0,0,0,0,0,0,0,0,0,0,0,0,0,0,0,0,0,0,0,0,0,0,0,0,0,0,0,0,0,0,0,0,0,0,0,0,0,0,0,0,0,0,0,0,0,0,0,0,0,0,0,0,0,0,0,0,0],"id":4,"left_children":[1,3,5,7,9,11,13,15,17,19,21,23,-1,25,27,29,31,-1,33,35,-1,37,39,41,-1,43,45,47,49,-1,51,53,55,57,59,-1,61,63,65,-1,67,-1,-1,69,71,73,75,77,-1,79,81,-1,-1,-1,-1,-1,-1,-1,-1,-1,-1,-1,-1,-1,-1,-1,-1,-1,-1,-1,-1,-1,-1,-1,-1,-1,-1,-1,-1,-1,-1,-1,-1],"loss_changes":[1.178022E3,2.0321527E2,6.864276E1,5.5137512E1,8.570853E1,9.493364E0,4.4892822E1,8.5419556E1,1.0325928E0,3.848381E0,5.251326E1,2.8242626E0,0E0,3.1525265E1,2.4830322E0,3.9408875E0,1.816402E1,0E0,7.699272E0,7.363222E0,0E0,1.1400143E1,1.4142837E1,8.4217924E-1,0E0,2.4369865E1,2.8234146E1,1.9490356E0,1.1074379E1,0E0,1.3769386E1,1.2416965E1,7.8118153E0,6.3782487E0,2.2574844E0,0E0,2.8035474E0,9.255573E0,6.442127E0,0E0,1.5278609E1,0E0,0E0,2.92834E0,4.6202164E0,2.8727436E0,5.196932E0,1.3005932E1,0E0,2.9571457E0,1.3334274E0,0E0,0E0,0E0,0E0,0E0,0E0,0E0,0E0,0E0,0E0,0E0,0E0,0E0,0E0,0E0,0E0,0E0,0E0,0E0,0E0,0E0,0E0,0E0,0E0,0E0,0E0,0E0,0E0,0E0,0E0,0E0,0E0],"parents":[2147483647,0,0,1,1,2,2,3,3,4,4,5,5,6,6,7,7,8,8,9,9,10,10,11,11,13,13,14,14,15,15,16,16,18,18,19,19,21,21,22,22,23,23,25,25,26,26,27,27,28,28,30,30,31,31,32,32,33,33,34,34,36,36,37,37,38,38,40,40,43,43,44,44,45,45,46,46,47,47,49,49,50,50],"right_children":[2,4,6,8,10,12,14,16,18,20,22,24,-1,26,28,30,32,-1,34,36,-1,38,40,42,-1,44,46,48,50,-1,52,54,56,58,60,-1,62,64,66,-1,68,-1,-1,70,72,74,76,78,-1,80,82,-1,-1,-1,-1,-1,-1,-1,-1,-1,-1,-1,-1,-1,-1,-1,-1,-1,-1,-1,-1,-1,-1,-1,-1,-1,-1,-1,-1,-1,-1,-1,-1],"split_conditions":[1E0,2.5003325E3,2.445E1,6.92285E1,8.16E1,2.095E1,1E0,3.106E2,1.1676E3,3.2336E3,5.5289E3,1.9821432E1,-5.972987E-2,1E0,1E0,1.092E2,1E0,7.831919E-2,1.36775E3,6.905E1,-8.609334E-2,1E0,9.925E1,1.975E1,6.1627615E-2,3.905264E2,3.2336E3,6.835E1,3.355746E3,7.691374E-2,3.5062775E1,1E0,1.20015E3,7.43E1,8.018309E1,-7.3624186E-2,1E0,1E0,4.23415E3,-7.961942E-2,6.9973E3,2.2460284E-2,-1.747869E-2,1E0,9.4775E2,1.80005E3,9.52E1,5.3863674E1,-8.677723E-2,1E0,6.9973E3,-4.334736E-2,6.397622E-2,7.323924E-2,-9.254477E-3,-2.1900592E-2,-8.108227E-2,-6.839105E-2,3.7226353E-2,4.4130895E-2,7.6680675E-2,4.1885894E-2,-2.4794688E-2,6.1541017E-2,-4.6427405E-4,4.194207E-2,-3.981641E-2,1.4483494E-2,-6.823968E-2,-2.881486E-3,6.270978E-2,-3.0579526E-2,-8.211689E-2,7.26397E-2,2.329611E-2,-7.5156435E-2,-1.38080465E-2,-7.925078E-2,5.791692E-2,-3.3612862E-2,3.5332065E-2,-5.5178113E-2,-8.6223036E-2],"split_indices":[7,15,15,14,14,14,9,15,15,15,15,15,0,16,16,15,6,0,15,14,0,18,14,14,0,15,15,15,15,0,14,5,15,14,14,0,16,3,15,0,15,0,0,21,15,15,14,15,0,0,15,0,0,0,0,0,0,0,0,0,0,0,0,0,0,0,0,0,0,0,0,0,0,0,0,0,0,0,0,0,0,0,0],"split_type":[0,0,0,0,0,0,0,0,0,0,0,0,0,0,0,0,0,0,0,0,0,0,0,0,0,0,0,0,0,0,0,0,0,0,0,0,0,0,0,0,0,0,0,0,0,0,0,0,0,0,0,0,0,0,0,0,0,0,0,0,0,0,0,0,0,0,0,0,0,0,0,0,0,0,0,0,0,0,0,0,0,0,0],"sum_hessian":[9.000789E2,5.351067E2,3.649722E2,4.060289E2,1.2907779E2,1.4801113E1,3.5017108E2,1.1188032E2,2.941486E2,3.4100014E1,9.497778E1,1.3307556E1,1.4935567E0,7.7566795E1,2.726043E2,6.748683E1,4.439349E1,2.3803166E2,5.611693E1,1.0580954E1,2.351906E1,6.0396935E1,3.458085E1,3.6918733E0,9.615683E0,4.9697563E1,2.7869234E1,2.3227948E2,4.0324814E1,5.0439777E1,1.7047052E1,2.081641E1,2.357708E1,4.285081E0,5.183185E1,6.1998253E0,4.3811283E0,5.2212616E1,8.184317E0,9.675866E0,2.4904982E1,2.465625E0,1.2262483E0,5.6422114E0,4.405535E1,1.3944486E1,1.3924748E1,7.4548893E0,2.248246E2,4.3963346E0,3.592848E1,2.9774604E0,1.4069592E1,5.3679824E0,1.5448427E1,1.3886413E1,9.690667E0,1.1984717E0,3.0866094E0,1.203547E1,3.979638E1,1.945943E0,2.4351854E0,4.531234E1,6.900278E0,2.959329E0,5.2249875E0,1.7965244E1,6.9397383E0,3.1995778E0,2.4426336E0,6.7207522E0,3.7334602E1,7.1689963E0,6.775489E0,6.461698E0,7.463051E0,5.956774E0,1.4981154E0,1.7253004E0,2.6710343E0,1.46823E1,2.124618E1],"tree_param":{"num_deleted":"0","num_feature":"23","num_nodes":"83","size_leaf_vector":"1"}},{"base_weights":[-1.1284704E-2,9.2495114E-1,-1.3262484E0,1.269662E0,-5.187595E-1,2.1587719E-1,-1.4568268E0,7.633911E-1,1.4568318E0,-1.4567528E0,1.8615829E-2,6.272572E-1,-4.450726E-1,-7.5396603E-1,-1.6362382E0,1.4097257E0,-1.1780847E-1,1.4979237E0,7.7353007E-1,-9.482737E-1,-8.2634576E-2,8.535129E-1,-7.629179E-1,-6.012165E-2,8.8441736E-1,-7.561051E-2,7.4021566E-1,2.5945392E-1,-1.1309202E0,-8.337188E-2,-1.3203852E0,1.4701602E0,5.825322E-1,2.5168532E-1,-1.5426141E0,7.5199656E-2,1.5966267E-3,2.0428105E-1,6.4312845E-2,-7.566271E-2,-4.838855E-1,1.0760788E0,7.361663E-2,-1.3369142E0,-9.930986E-2,-3.4517433E-2,1.0523531E0,5.6613218E-2,-4.56675E-3,-5.1706594E-1,1.32427E0,-6.9465643E-1,-7.79504E-2,5.1591005E-2,-1.5001714E0,7.517722E-2,4.051864E-2,4.5113843E-2,-2.046817E-2,-1.4459818E-2,4.7985993E-2,-8.4048726E-2,-2.1109177E-2,3.9653387E-2,-3.0791521E-2,1.2460882E-2,-6.824475E-2,5.7771835E-3,5.9215773E-2,-2.377132E-2,5.9882265E-2,-8.453501E-2,-4.5309763E-2,3.809718E-2,-5.941344E-2,3.4597266E-2,7.0602246E-2,2.5006858E-4,-6.499349E-2,7.0249364E-2,2.1964792E-2,-4.7822427E-2,3.457919E-2,-1.3705728E-2,-7.859054E-2],"categories":[],"categories_nodes":[],"categories_segments":[],"categories_sizes":[],"default_left":[0,0,0,0,0,0,0,0,0,0,0,0,0,0,0,0,0,0,0,0,0,0,0,0,0,0,0,0,0,0,0,0,0,0,0,0,0,0,0,0,0,0,0,0,0,0,0,0,0,0,0,0,0,0,0,0,0,0,0,0,0,0,0,0,0,0,0,0,0,0,0,0,0,0,0,0,0,0,0,0,0,0,0,0,0],"id":5,"left_children":[1,3,5,7,9,11,13,15,17,19,21,23,25,27,29,31,33,35,37,39,-1,41,43,-1,45,-1,47,49,51,-1,53,55,57,59,61,-1,-1,63,-1,-1,65,67,69,71,73,-1,75,-1,-1,77,79,81,-1,-1,83,-1,-1,-1,-1,-1,-1,-1,-1,-1,-1,-1,-1,-1,-1,-1,-1,-1,-1,-1,-1,-1,-1,-1,-1,-1,-1,-1,-1,-1,-1],"loss_changes":[1.0985255E3,2.6004797E2,7.504004E1,3.878534E1,5.10233E1,8.3926525E0,4.19245E1,6.608945E1,7.4415283E0,2.1054459E0,4.326553E1,9.912743E0,1.6338776E1,2.758881E1,4.767456E-1,2.485443E0,2.6657324E1,2.5131836E0,5.41199E0,2.5735636E0,0E0,5.483732E0,1.2917442E1,0E0,5.2397337E0,0E0,2.180743E0,1.7374813E1,8.678253E0,0E0,1.3912769E1,1.3929749E-1,2.3381534E0,1.5780768E1,9.04974E-1,0E0,0E0,5.511387E0,0E0,0E0,5.7561736E0,2.4477081E0,5.6230597E0,1.255043E0,1.6821274E1,0E0,1.0734539E0,0E0,0E0,5.0707893E0,1.0914803E-2,1.0710232E1,0E0,0E0,1.9907341E0,0E0,0E0,0E0,0E0,0E0,0E0,0E0,0E0,0E0,0E0,0E0,0E0,0E0,0E0,0E0,0E0,0E0,0E0,0E0,0E0,0E0,0E0,0E0,0E0,0E0,0E0,0E0,0E0,0E0,0E0],"parents":[2147483647,0,0,1,1,2,2,3,3,4,4,5,5,6,6,7,7,8,8,9,9,10,10,11,11,12,12,13,13,14,14,15,15,16,16,17,17,18,18,19,19,21,21,22,22,24,24,26,26,27,27,28,28,30,30,31,31,32,32,33,33,34,34,37,37,40,40,41,41,42,42,43,43,44,44,46,46,49,49,50,50,51,51,54,54],"right_children":[2,4,6,8,10,12,14,16,18,20,22,24,26,28,30,32,34,36,38,40,-1,42,44,-1,46,-1,48,50,52,-1,54,56,58,60,62,-1,-1,64,-1,-1,66,68,70,72,74,-1,76,-1,-1,78,80,82,-1,-1,84,-1,-1,-1,-1,-1,-1,-1,-1,-1,-1,-1,-1,-1,-1,-1,-1,-1,-1,-1,-1,-1,-1,-1,-1,-1,-1,-1,-1,-1,-1],"split_conditions":[1E0,3.9E1,4E0,1E0,8.1E1,2E0,1E0,7E0,3.2E1,4.9E1,5.6E1,1E0,5.3863674E1,3E1,1E0,1E0,1E0,1E0,9.5E1,2.2436133E3,-8.2634576E-2,1E0,1.0256732E2,-6.012165E-2,1.945E1,-7.561051E-2,1E0,7.488009E1,5.9E1,-8.337188E-2,1.5931E3,1E0,5.1168354E1,5.710076E1,6.495E1,7.5199656E-2,1.5966267E-3,1E0,6.4312845E-2,-7.566271E-2,3.2336E3,3.7765593E3,5.4E1,9.335E1,6.9973E3,-3.4517433E-2,1E0,5.6613218E-2,-4.56675E-3,9.4775E2,1E0,5.32725E3,-7.79504E-2,5.1591005E-2,3.7765593E3,7.517722E-2,4.051864E-2,4.5113843E-2,-2.046817E-2,-1.4459818E-2,4.7985993E-2,-8.4048726E-2,-2.1109177E-2,3.9653387E-2,-3.0791521E-2,1.2460882E-2,-6.824475E-2,5.7771835E-3,5.9215773E-2,-2.377132E-2,5.9882265E-2,-8.453501E-2,-4.5309763E-2,3.809718E-2,-5.941344E-2,3.4597266E-2,7.0602246E-2,2.5006858E-4,-6.499349E-2,7.0249364E-2,2.1964792E-2,-4.7822427E-2,3.457919E-2,-1.3705728E-2,-7.859054E-2],"split_indices":[7,4,4,16,14,4,10,4,4,4,4,4,15,4,16,2,3,18,14,15,0,18,14,0,14,0,22,14,4,0,15,10,14,14,14,0,0,2,0,0,15,15,4,14,15,0,13,0,0,15,22,15,0,0,15,0,0,0,0,0,0,0,0,0,0,0,0,0,0,0,0,0,0,0,0,0,0,0,0,0,0,0,0,0,0],"split_type":[0,0,0,0,0,0,0,0,0,0,0,0,0,0,0,0,0,0,0,0,0,0,0,0,0,0,0,0,0,0,0,0,0,0,0,0,0,0,0,0,0,0,0,0,0,0,0,0,0,0,0,0,0,0,0,0,0,0,0,0,0,0,0,0,0,0,0,0,0,0,0,0,0,0,0,0,0,0,0,0,0,0,0,0,0],"sum_hessian":[8.903041E2,5.202149E2,3.7008917E2,4.2004294E2,1.00171974E2,2.8839766E1,3.4124942E2,1.1474651E2,3.0529642E2,3.586261E1,6.4309364E1,1.780733E1,1.1032436E1,7.045149E1,2.707979E2,6.584865E1,4.8897865E1,2.8685364E2,1.8442785E1,1.1599772E1,2.4262836E1,3.1048628E1,3.326074E1,1.7414103E0,1.6065918E1,5.660429E0,5.372008E0,1.9185114E1,5.126638E1,2.4255923E2,2.8238676E1,6.0640938E1,5.207708E0,3.9482304E1,9.415562E0,2.856451E2,1.20851E0,9.402353E0,9.040433E0,4.214167E0,7.3856053E0,2.385978E1,7.1888494E0,1.7290491E1,1.5970246E1,1.2484229E0,1.4817495E1,3.4050221E0,1.9669855E0,1.1391929E1,7.793185E0,2.6689665E1,2.4576714E1,1.6686032E0,2.6570074E1,5.650314E1,4.137797E0,4.0065265E0,1.2011812E0,2.2718636E1,1.6763668E1,7.935344E0,1.4802176E0,5.4922504E0,3.9101028E0,4.4226036E0,2.9630017E0,2.625707E0,2.1234072E1,5.2173944E0,1.9714547E0,7.886962E0,9.403528E0,9.085143E0,6.8851037E0,8.861786E0,5.955709E0,7.4301953E0,3.9617329E0,6.6033053E0,1.1898799E0,2.2710768E1,3.9788976E0,1.7332411E0,2.4836832E1],"tree_param":{"num_deleted":"0","num_feature":"23","num_nodes":"85","size_leaf_vector":"1"}},{"base_weights":[-9.062446E-4,8.7559444E-1,-1.2582072E0,1.002661E0,-8.056698E-2,-9.1269577E-1,-8.185466E-2,1.1786965E0,-9.5631456E-1,-3.4391433E-1,-1.5746849E0,1.2920154E0,5.5395406E-1,-1.2970035E0,-4.1245332E-1,-6.955422E-1,5.618161E-1,-8.191973E-2,-5.937609E-1,9.3016726E-1,1.3951217E0,-5.406654E-1,9.2240715E-1,-6.7381626E-1,-7.0829116E-2,4.2525634E-1,-7.343751E-1,-5.6687564E-1,-7.625628E-2,9.3436193E-1,-2.8786466E-1,3.4594942E-2,-4.9875896E-2,5.704173E-2,-2.2055078E-2,7.079401E-2,4.5359638E-2,-3.8578366E-3,-5.8131803E-2,6.1779547E-2,1.4129201E-2,-2.6117032E-3,-5.931831E-2,-3.8526782E-3,4.3413285E-2,2.4203414E-3,-6.1431814E-2,-1.7405057E-2,-5.50556E-2,5.8951046E-2,-1.3072718E-6,1.2664112E-2,-2.7631445E-2],"categories":[],"categories_nodes":[],"categories_segments":[],"categories_sizes":[],"default_left":[0,0,0,0,0,0,0,0,0,0,0,0,0,0,0,0,0,0,0,0,0,0,0,0,0,0,0,0,0,0,0,0,0,0,0,0,0,0,0,0,0,0,0,0,0,0,0,0,0,0,0,0,0],"id":6,"left_children":[1,3,5,7,-1,9,-1,11,13,15,17,19,21,23,25,27,29,-1,31,33,35,37,39,41,-1,43,45,47,-1,49,51,-1,-1,-1,-1,-1,-1,-1,-1,-1,-1,-1,-1,-1,-1,-1,-1,-1,-1,-1,-1,-1,-1],"loss_changes":[9.647899E2,1.6462863E2,4.5582947E1,1.7058441E2,0E0,7.1131165E1,0E0,3.1236023E1,7.0745277E0,3.340545E1,4.507248E0,1.2927429E1,2.915244E1,8.924217E-1,4.973401E0,7.1537285E0,9.620735E0,0E0,4.2804008E0,2.5795288E1,1.7008057E0,5.25003E0,1.0375935E1,1.8168492E0,0E0,1.2755522E0,5.032119E0,7.403658E0,0E0,4.749035E0,1.5397127E0,0E0,0E0,0E0,0E0,0E0,0E0,0E0,0E0,0E0,0E0,0E0,0E0,0E0,0E0,0E0,0E0,0E0,0E0,0E0,0E0,0E0,0E0],"parents":[2147483647,0,0,1,1,2,2,3,3,5,5,7,7,8,8,9,9,10,10,11,11,12,12,13,13,14,14,15,15,16,16,18,18,19,19,20,20,21,21,22,22,23,23,25,25,26,26,27,27,29,29,30,30],"right_children":[2,4,6,8,-1,10,-1,12,14,16,18,20,22,24,26,28,30,-1,32,34,36,38,40,42,-1,44,46,48,-1,50,52,-1,-1,-1,-1,-1,-1,-1,-1,-1,-1,-1,-1,-1,-1,-1,-1,-1,-1,-1,-1,-1,-1],"split_conditions":[1E0,1E0,1E0,1E0,-8.056698E-2,1E0,-8.185466E-2,1E0,9.475162E1,7.277701E1,1.053198E2,6.745E1,1E0,1E0,1E0,1E0,1E0,-8.191973E-2,1E0,1E0,1E0,1E0,1E0,1E0,-7.0829116E-2,1E0,1E0,1E0,-7.625628E-2,1E0,1E0,3.4594942E-2,-4.9875896E-2,5.704173E-2,-2.2055078E-2,7.079401E-2,4.5359638E-2,-3.8578366E-3,-5.8131803E-2,6.1779547E-2,1.4129201E-2,-2.6117032E-3,-5.931831E-2,-3.8526782E-3,4.3413285E-2,2.4203414E-3,-6.1431814E-2,-1.7405057E-2,-5.50556E-2,5.8951046E-2,-1.3072718E-6,1.2664112E-2,-2.7631445E-2],"split_indices":[7,19,19,18,0,18,0,8,14,14,14,14,16,5,8,20,9,0,9,2,10,21,2,10,0,21,9,3,0,8,6,0,0,0,0,0,0,0,0,0,0,0,0,0,0,0,0,0,0,0,0,0,0],"split_type":[0,0,0,0,0,0,0,0,0,0,0,0,0,0,0,0,0,0,0,0,0,0,0,0,0,0,0,0,0,0,0,0,0,0,0,0,0,0,0,0,0,0,0,0,0,0,0,0,0,0,0,0,0],"sum_hessian":[8.734703E2,5.148542E2,3.586161E2,4.9039496E2,2.4459238E1,1.8935208E2,1.69264E2,4.5032648E2,4.00685E1,1.0266326E2,8.668882E1,3.802811E2,7.004536E1,2.3784475E1,1.6284023E1,7.4120026E1,2.8543236E1,8.07725E1,5.916316E0,8.655171E1,2.937294E2,1.7522177E1,5.2523182E1,4.8972535E0,1.8887222E1,4.431449E0,1.1852575E1,6.5625046E1,8.494975E0,1.9773712E1,8.769524E0,1.2433951E0,4.672921E0,7.517124E1,1.1380471E1,2.7991864E2,1.3810743E1,1.0684135E1,6.8380423E0,3.46375E1,1.7885681E1,2.7112107E0,2.1860428E0,2.4638546E0,1.9675946E0,4.936499E0,6.916076E0,4.7730553E1,1.7894495E1,1.5463072E1,4.310641E0,2.8952796E0,5.874244E0],"tree_param":{"num_deleted":"0","num_feature":"23","num_nodes":"53","size_leaf_vector":"1"}},{"base_weights":[4.711333E-3,8.585515E-1,-1.235787E0,9.953498E-1,-8.0428384E-2,-9.171006E-1,-7.947531E-2,1.1821637E0,1.7512186E-1,-1.1260396E0,-1.3928133E-1,1.241923E0,-3.3471428E-2,-7.272226E-1,5.176721E-1,-9.3725926E-1,-1.3700192E0,3.724446E-1,-6.9964904E-1,1.334318E0,8.003782E-1,-1.0558811E0,6.567652E-1,-3.826062E-1,-1.2122031E0,8.621712E-1,2.6701376E-2,-7.9273325E-1,-7.507369E-2,-7.035473E-2,-3.7212485E-1,7.0494485E-1,-5.180045E-1,-7.4407336E-4,-7.517033E-1,5.4099478E-2,7.016531E-2,-2.452427E-2,5.203816E-2,-1.5900563E-2,-6.315307E-2,5.1481135E-2,-1.7852461E-2,-1.4724911E-3,-5.5224665E-2,-6.5240405E-2,-1.432646E-2,5.133424E-2,1.4446263E-2,-3.0137634E-2,3.323213E-2,-1.3882759E-2,-4.7696333E-2,-2.9070118E-2,1.5357569E-3,5.5090416E-2,5.096569E-3,-5.9554774E-2,-2.1092363E-3,-5.3964317E-2,-2.7374595E-2],"categories":[],"categories_nodes":[],"categories_segments":[],"categories_sizes":[],"default_left":[0,0,0,0,0,0,0,0,0,0,0,0,0,0,0,0,0,0,0,0,0,0,0,0,0,0,0,0,0,0,0,0,0,0,0,0,0,0,0,0,0,0,0,0,0,0,0,0,0,0,0,0,0,0,0,0,0,0,0,0,0],"id":7,"left_children":[1,3,5,7,-1,9,-1,11,13,15,17,19,21,23,25,27,29,31,33,35,37,39,41,43,45,47,49,51,-1,-1,53,55,57,-1,59,-1,-1,-1,-1,-1,-1,-1,-1,-1,-1,-1,-1,-1,-1,-1,-1,-1,-1,-1,-1,-1,-1,-1,-1,-1,-1],"loss_changes":[9.2336896E2,1.7587E2,3.8606384E1,7.485211E1,0E0,3.061235E1,0E0,2.9012756E1,2.882715E1,5.583252E0,1.2083556E1,1.4440552E1,1.4567511E1,3.8386984E0,1.13602085E1,5.9223175E0,1.8025818E0,6.9389286E0,7.026863E-1,3.9278564E0,2.169815E1,8.682194E-1,5.037157E0,4.176653E0,5.0328827E-1,3.4301891E0,1.1958562E1,5.676235E0,0E0,0E0,3.2235992E-1,3.8579063E0,2.067728E0,0E0,6.528425E-1,0E0,0E0,0E0,0E0,0E0,0E0,0E0,0E0,0E0,0E0,0E0,0E0,0E0,0E0,0E0,0E0,0E0,0E0,0E0,0E0,0E0,0E0,0E0,0E0,0E0,0E0],"parents":[2147483647,0,0,1,1,2,2,3,3,5,5,7,7,8,8,9,9,10,10,11,11,12,12,13,13,14,14,15,15,16,16,17,17,18,18,19,19,20,20,21,21,22,22,23,23,24,24,25,25,26,26,27,27,30,30,31,31,32,32,34,34],"right_children":[2,4,6,8,-1,10,-1,12,14,16,18,20,22,24,26,28,30,32,34,36,38,40,42,44,46,48,50,52,-1,-1,54,56,58,-1,60,-1,-1,-1,-1,-1,-1,-1,-1,-1,-1,-1,-1,-1,-1,-1,-1,-1,-1,-1,-1,-1,-1,-1,-1,-1,-1],"split_conditions":[1E0,1E0,1E0,1E0,-8.0428384E-2,1E0,-7.947531E-2,1E0,1E0,1E0,1E0,1E0,6.905E1,1E0,1E0,1E0,7.845E1,1E0,8.460011E1,6.56E1,6.495E1,1E0,1E0,1E0,7.075E1,1E0,1E0,1E0,-7.507369E-2,-7.035473E-2,1E0,1E0,1E0,-7.4407336E-4,9.475162E1,5.4099478E-2,7.016531E-2,-2.452427E-2,5.203816E-2,-1.5900563E-2,-6.315307E-2,5.1481135E-2,-1.7852461E-2,-1.4724911E-3,-5.5224665E-2,-6.5240405E-2,-1.432646E-2,5.133424E-2,1.4446263E-2,-3.0137634E-2,3.323213E-2,-1.3882759E-2,-4.7696333E-2,-2.9070118E-2,1.5357569E-3,5.5090416E-2,5.096569E-3,-5.9554774E-2,-2.1092363E-3,-5.3964317E-2,-2.7374595E-2],"split_indices":[7,19,19,8,0,16,0,20,16,2,8,2,14,2,2,20,14,9,14,14,14,6,2,21,14,9,21,12,0,0,0,0,13,0,14,0,0,0,0,0,0,0,0,0,0,0,0,0,0,0,0,0,0,0,0,0,0,0,0,0,0],"split_type":[0,0,0,0,0,0,0,0,0,0,0,0,0,0,0,0,0,0,0,0,0,0,0,0,0,0,0,0,0,0,0,0,0,0,0,0,0,0,0,0,0,0,0,0,0,0,0,0,0,0,0,0,0,0,0,0,0,0,0,0,0],"sum_hessian":[8.697694E2,5.153558E2,3.5441364E2,4.888465E2,2.6509302E1,1.883294E2,1.6608424E2,3.9780237E2,9.104413E1,1.4809912E2,4.0230286E1,3.7914252E2,1.8659845E1,2.4743069E1,6.630106E1,8.622427E1,6.187484E1,2.1203068E1,1.9027216E1,3.1186218E2,6.7280334E1,7.306859E0,1.1352987E1,1.5510536E1,9.232533E0,3.8518066E1,2.7782995E1,7.055605E1,1.5668223E1,5.9262943E1,2.6118946E0,1.5589981E1,5.6130877E0,1.4350604E0,1.7592155E1,7.054026E1,2.4132191E2,1.0398753E1,5.6881577E1,2.1575875E0,5.149271E0,8.288921E0,3.0640657E0,1.1114148E1,4.396388E0,8.020576E0,1.2119578E0,2.9314272E1,9.203793E0,1.4012287E1,1.3770708E1,1.7466383E1,5.3089672E1,1.4271985E0,1.1846961E0,8.90327E0,6.6867113E0,1.7020837E0,3.9110038E0,5.1099515E0,1.24822035E1],"tree_param":{"num_deleted":"0","num_feature":"23","num_nodes":"61","size_leaf_vector":"1"}},{"base_weights":[8.608357E-3,8.112842E-1,-1.180288E0,1.2716457E0,-1.7904335E-1,7.353891E-1,-1.2779849E0,1.3878205E0,9.5615435E-1,-1.1303942E0,3.6818773E-1,9.41746E-1,-5.415693E-2,-6.484142E-1,-1.4470681E0,6.900094E-1,1.4029136E0,-9.947251E-1,1.1050764E0,-7.180296E-1,-1.5060352E0,8.5631895E-1,-8.184614E-1,1.132563E0,4.3982524E-2,5.47448E-1,-1.108276E0,-1.5063034E0,-1.0713884E0,6.2315013E-2,-5.6172937E-2,7.105283E-2,9.391395E-1,4.453138E-4,-7.097046E-2,1.2037692E0,1.8314544E-2,-7.506409E-2,-3.6664486E-1,-1.0336835E-2,-7.7701874E-2,1.047216E0,-9.0346016E-2,-1.3015352E0,-3.768018E-1,2.79904E-2,6.380882E-2,-4.1314356E-2,4.6468962E-2,1.9060157E-2,6.829982E-2,-1.342767E0,-1.4105625E-1,-7.8947675E-1,-7.6435156E-2,5.053169E-1,-1.3421146E0,2.2763973E-2,6.507145E-2,4.28677E-2,6.6904746E-2,-4.2956553E-2,5.782923E-2,3.8518254E-2,-4.7925998E-2,5.8083713E-2,7.297583E-3,-4.253184E-2,1.8928371E-2,-2.1570766E-2,-6.838174E-2,2.0626443E-2,-6.2172968E-2,5.057255E-2,-2.4647798E-2,-7.3502414E-2,-4.549992E-2,2.7675629E-2,-5.313016E-2,-6.9953434E-2,2.683931E-2,4.3883014E-2,-6.457782E-3,-3.2218453E-2,-7.38669E-2],"categories":[],"categories_nodes":[],"categories_segments":[],"categories_sizes":[],"default_left":[0,0,0,0,0,0,0,0,0,0,0,0,0,0,0,0,0,0,0,0,0,0,0,0,0,0,0,0,0,0,0,0,0,0,0,0,0,0,0,0,0,0,0,0,0,0,0,0,0,0,0,0,0,0,0,0,0,0,0,0,0,0,0,0,0,0,0,0,0,0,0,0,0,0,0,0,0,0,0,0,0,0,0,0,0],"id":8,"left_children":[1,3,5,7,9,11,13,15,17,19,21,23,-1,25,27,29,31,33,35,37,39,41,43,45,47,49,51,53,55,-1,-1,-1,57,-1,-1,59,61,-1,63,-1,-1,65,67,69,71,-1,-1,-1,-1,73,-1,75,77,79,-1,81,83,-1,-1,-1,-1,-1,-1,-1,-1,-1,-1,-1,-1,-1,-1,-1,-1,-1,-1,-1,-1,-1,-1,-1,-1,-1,-1,-1,-1],"loss_changes":[8.163653E2,2.3304791E2,6.546829E1,1.1455078E1,8.524079E1,7.536561E0,3.402191E1,1.6930542E0,2.93014E1,8.1729355E0,6.105195E1,2.7134438E0,0E0,3.983978E1,4.1293335E0,8.781856E0,7.3831177E-1,3.171317E0,9.701828E0,7.813813E0,1.5718002E0,1.3523872E1,6.097639E0,3.7649155E-1,3.748267E0,8.83346E0,1.1572193E1,2.3330688E0,1.7160633E1,0E0,0E0,0E0,1.5501823E0,0E0,0E0,2.7195282E0,9.546376E0,0E0,1.5747102E1,0E0,0E0,6.217987E0,5.09605E0,2.3475838E-1,1.2510466E1,0E0,0E0,0E0,0E0,7.3391304E0,0E0,9.5490265E-1,7.780372E0,7.82388E0,0E0,1.621756E0,2.1832123E0,0E0,0E0,0E0,0E0,0E0,0E0,0E0,0E0,0E0,0E0,0E0,0E0,0E0,0E0,0E0,0E0,0E0,0E0,0E0,0E0,0E0,0E0,0E0,0E0,0E0,0E0,0E0,0E0],"parents":[2147483647,0,0,1,1,2,2,3,3,4,4,5,5,6,6,7,7,8,8,9,9,10,10,11,11,13,13,14,14,15,15,16,16,17,17,18,18,19,19,20,20,21,21,22,22,23,23,24,24,25,25,26,26,27,27,28,28,32,32,35,35,36,36,38,38,41,41,42,42,43,43,44,44,49,49,51,51,52,52,53,53,55,55,56,56],"right_children":[2,4,6,8,10,12,14,16,18,20,22,24,-1,26,28,30,32,34,36,38,40,42,44,46,48,50,52,54,56,-1,-1,-1,58,-1,-1,60,62,-1,64,-1,-1,66,68,70,72,-1,-1,-1,-1,74,-1,76,78,80,-1,82,84,-1,-1,-1,-1,-1,-1,-1,-1,-1,-1,-1,-1,-1,-1,-1,-1,-1,-1,-1,-1,-1,-1,-1,-1,-1,-1,-1,-1],"split_conditions":[1E0,2.5E1,2E0,1E1,8.245939E1,1E0,1E0,2.54E1,6.401807E2,1E0,5.9E1,2.095E1,-5.415693E-2,2.3E1,1E0,5E0,1E0,1E0,1E0,1.9530652E3,9.968003E2,1E0,1.0256732E2,1.9821432E1,5.365E1,7.108516E1,9.464842E1,4E0,4.7E1,6.2315013E-2,-5.6172937E-2,7.105283E-2,7.365E1,4.453138E-4,-7.097046E-2,7.58E1,8.3119995E1,-7.506409E-2,2.61925E3,-1.0336835E-2,-7.7701874E-2,1E0,9.943935E1,6.1E1,6.9973E3,2.79904E-2,6.380882E-2,-4.1314356E-2,4.6468962E-2,7E0,6.829982E-2,1E0,5.6E1,5.6876766E1,-7.6435156E-2,1.053198E2,5.9E1,2.2763973E-2,6.507145E-2,4.28677E-2,6.6904746E-2,-4.2956553E-2,5.782923E-2,3.8518254E-2,-4.7925998E-2,5.8083713E-2,7.297583E-3,-4.253184E-2,1.8928371E-2,-2.1570766E-2,-6.838174E-2,2.0626443E-2,-6.2172968E-2,5.057255E-2,-2.4647798E-2,-7.3502414E-2,-4.549992E-2,2.7675629E-2,-5.313016E-2,-6.9953434E-2,2.683931E-2,4.3883014E-2,-6.457782E-3,-3.2218453E-2,-7.38669E-2],"split_indices":[7,4,4,4,14,20,9,14,15,2,4,14,0,4,16,4,10,6,10,15,15,10,14,15,14,14,14,4,4,0,0,0,14,0,0,14,14,0,15,0,0,18,14,4,15,0,0,0,0,4,0,20,4,15,0,14,4,0,0,0,0,0,0,0,0,0,0,0,0,0,0,0,0,0,0,0,0,0,0,0,0,0,0,0,0],"split_type":[0,0,0,0,0,0,0,0,0,0,0,0,0,0,0,0,0,0,0,0,0,0,0,0,0,0,0,0,0,0,0,0,0,0,0,0,0,0,0,0,0,0,0,0,0,0,0,0,0,0,0,0,0,0,0,0,0,0,0,0,0,0,0,0,0,0,0,0,0,0,0,0,0,0,0,0,0,0,0,0,0,0,0,0,0],"sum_hessian":[8.534579E2,5.09673E2,3.4378488E2,3.477395E2,1.6193349E2,1.6365078E1,3.274198E2,2.5166776E2,9.607175E1,5.874345E1,1.0319003E2,1.5130309E1,1.2347689E0,7.034175E1,2.5707806E2,6.3171825E0,2.4535059E2,6.410796E0,8.966095E1,2.9390808E1,2.9352644E1,7.331152E1,2.9878511E1,1.2262428E1,2.8678808E0,1.9483862E1,5.085789E1,2.1946443E2,3.7613625E1,5.0735865E0,1.2435961E0,2.3412737E2,1.1223209E1,2.1972322E0,4.2135644E0,8.20977E1,7.5632515E0,8.088565E0,2.1302242E1,1.2348629E0,2.811778E1,6.092054E1,1.2390983E1,1.3340338E1,1.6538174E1,3.4402285E0,8.8222E0,1.4799633E0,1.3879175E0,1.2462426E1,7.0214357E0,4.062143E1,1.023646E1,7.748377E0,2.1171605E2,5.3849926E0,3.222863E1,5.7715797E0,5.4516296E0,2.5002062E1,5.709564E1,4.4094324E0,3.153819E0,7.189475E0,1.4112766E1,5.3799244E1,7.121297E0,4.4163327E0,7.9746494E0,1.4732697E0,1.1867068E1,8.929449E0,7.6087246E0,3.9095325E0,8.552894E0,2.9537361E1,1.108407E1,6.064796E0,4.1716633E0,5.270839E0,2.4775376E0,3.1519585E0,2.233034E0,6.167882E0,2.6060751E1],"tree_param":{"num_deleted":"0","num_feature":"23","num_nodes":"85","size_leaf_vector":"1"}},{"base_weights":[2.1219948E-2,8.0875856E-1,-1.145298E0,1.2427261E0,-1.7805369E-1,2.2197913E-1,-1.3198507E0,1.3047996E0,3.7808686E-1,-9.642694E-1,3.6517963E-1,7.5898224E-1,-2.6456684E-1,-1.4305638E0,-7.761415E-1,1.0256988E0,6.923321E-2,6.1106145E-2,-5.12558E-1,-5.430058E-1,-7.366997E-2,8.827731E-1,-6.0659134E-1,-5.6925226E-2,1.0441128E0,9.667185E-1,-1.2018863E0,-1.1084775E0,-7.433616E-2,4.7726715E-1,-1.2561737E0,1.3435022E0,3.7030965E-1,-7.268356E-2,5.963612E-1,-7.79893E-2,3.2886125E-2,1.0171613E0,-2.1369874E-1,-7.9441346E-2,-2.251842E-1,-1.022471E-2,5.780375E-2,5.834644E-2,2.778178E-1,-7.313234E-1,-7.0535414E-2,-8.338226E-2,-7.012136E-2,7.1914995E-1,-5.3716432E-2,-7.8140354E-1,-7.108962E-2,6.891381E-2,1.7425468E-3,-1.4734513E-2,4.640196E-2,-4.5796945E-3,4.8647948E-2,2.2265505E-2,-6.626686E-2,5.792479E-2,2.9588186E-3,3.0734038E-2,-5.550359E-2,1.1277677E-2,-5.8997154E-2,-2.2349562E-2,4.2146645E-2,6.6001676E-3,-5.895884E-2,4.4064622E-2,-1.54404165E-2,4.62234E-2,-1.3206701E-2,-1.5096456E-2,-5.8924656E-2],"categories":[],"categories_nodes":[],"categories_segments":[],"categories_sizes":[],"default_left":[0,0,0,0,0,0,0,0,0,0,0,0,0,0,0,0,0,0,0,0,0,0,0,0,0,0,0,0,0,0,0,0,0,0,0,0,0,0,0,0,0,0,0,0,0,0,0,0,0,0,0,0,0,0,0,0,0,0,0,0,0,0,0,0,0,0,0,0,0,0,0,0,0,0,0,0,0],"id":9,"left_children":[1,3,5,7,9,11,13,15,17,19,21,23,25,27,29,31,-1,-1,33,35,-1,37,39,-1,41,43,45,47,-1,49,51,53,55,-1,57,-1,59,61,63,-1,65,-1,-1,-1,67,69,-1,71,-1,73,-1,75,-1,-1,-1,-1,-1,-1,-1,-1,-1,-1,-1,-1,-1,-1,-1,-1,-1,-1,-1,-1,-1,-1,-1,-1,-1],"loss_changes":[7.702268E2,2.1455356E2,8.0938995E1,1.8170532E1,6.6016884E1,1.041964E1,1.6936218E1,5.8027344E0,1.9194893E1,1.2733002E1,4.6633007E1,1.1387195E1,2.5699514E1,2.835907E0,3.243115E1,1.532222E1,0E0,0E0,1.4144953E1,2.1196857E1,0E0,9.08881E0,1.1796379E1,0E0,2.6002579E0,1.0197124E0,1.983223E-1,1.2157936E1,0E0,6.5430274E0,1.9186096E0,2.262329E0,9.984627E0,0E0,1.7860825E0,0E0,1.4052965E1,7.216545E0,6.17693E0,0E0,1.0824197E1,0E0,0E0,0E0,1.8130757E0,2.446096E0,0E0,2.4775014E0,0E0,3.0505395E0,0E0,1.9640923E0,0E0,0E0,0E0,0E0,0E0,0E0,0E0,0E0,0E0,0E0,0E0,0E0,0E0,0E0,0E0,0E0,0E0,0E0,0E0,0E0,0E0,0E0,0E0,0E0,0E0],"parents":[2147483647,0,0,1,1,2,2,3,3,4,4,5,5,6,6,7,7,8,8,9,9,10,10,11,11,12,12,13,13,14,14,15,15,18,18,19,19,21,21,22,22,24,24,25,25,26,26,27,27,29,29,30,30,31,31,32,32,34,34,36,36,37,37,38,38,40,40,44,44,45,45,47,47,49,49,51,51],"right_children":[2,4,6,8,10,12,14,16,18,20,22,24,26,28,30,32,-1,-1,34,36,-1,38,40,-1,42,44,46,48,-1,50,52,54,56,-1,58,-1,60,62,64,-1,66,-1,-1,-1,68,70,-1,72,-1,74,-1,76,-1,-1,-1,-1,-1,-1,-1,-1,-1,-1,-1,-1,-1,-1,-1,-1,-1,-1,-1,-1,-1,-1,-1,-1,-1],"split_conditions":[1E0,2.6E1,6E0,1E0,8.207368E1,2E0,9.1383644E1,6.625E1,5E0,5E1,5.6E1,1E0,1E0,1.9E1,4.9E1,6E0,6.923321E-2,6.1106145E-2,6.495E1,1.9530652E3,-7.366997E-2,1E0,9.335E1,-5.6925226E-2,1.95E1,1E0,1E0,1E0,-7.433616E-2,1E0,1E0,2.4283014E2,6.559E2,-7.268356E-2,1E0,-7.79893E-2,1E0,1E0,3.355746E3,-7.9441346E-2,6.9973E3,-1.022471E-2,5.780375E-2,5.834644E-2,8.407888E1,1.98E1,-7.0535414E-2,8E0,-7.012136E-2,1E0,-5.3716432E-2,6.9445E3,-7.108962E-2,6.891381E-2,1.7425468E-3,-1.4734513E-2,4.640196E-2,-4.5796945E-3,4.8647948E-2,2.2265505E-2,-6.626686E-2,5.792479E-2,2.9588186E-3,3.0734038E-2,-5.550359E-2,1.1277677E-2,-5.8997154E-2,-2.2349562E-2,4.2146645E-2,6.6001676E-3,-5.895884E-2,4.4064622E-2,-1.54404165E-2,4.62234E-2,-1.3206701E-2,-1.5096456E-2,-5.8924656E-2],"split_indices":[10,4,4,3,14,4,14,14,4,4,4,4,17,4,4,4,0,0,14,15,0,20,14,0,14,11,22,17,0,19,2,15,15,0,13,0,18,3,15,0,15,0,0,0,14,14,0,4,0,20,0,15,0,0,0,0,0,0,0,0,0,0,0,0,0,0,0,0,0,0,0,0,0,0,0,0,0],"split_type":[0,0,0,0,0,0,0,0,0,0,0,0,0,0,0,0,0,0,0,0,0,0,0,0,0,0,0,0,0,0,0,0,0,0,0,0,0,0,0,0,0,0,0,0,0,0,0,0,0,0,0,0,0,0,0,0,0,0,0,0,0,0,0,0,0,0,0,0,0,0,0,0,0,0,0,0,0],"sum_hessian":[8.363996E2,4.9949063E2,3.36909E2,3.467445E2,1.5274612E2,3.8111176E1,2.9879782E2,3.230437E2,2.3700792E1,6.209772E1,9.0648415E1,1.785005E1,2.0261126E1,2.4689296E2,5.1904854E1,7.495241E1,2.480913E2,1.1977713E1,1.172308E1,3.5111965E1,2.6985754E1,5.9205452E1,3.1442959E1,1.9408901E0,1.590916E1,8.743754E0,1.1517371E1,3.9736126E1,2.0715683E2,1.437532E1,3.7529533E1,4.9769066E1,2.5183346E1,6.173169E0,5.5499105E0,1.207832E1,2.3033646E1,5.28057E1,6.399752E0,7.909073E0,2.3533886E1,1.2411656E0,1.4667994E1,6.2371864E0,2.5065684E0,4.9239044E0,6.5934668E0,9.141278E0,3.0594847E1,1.2900702E1,1.4746184E0,1.1184784E1,2.634475E1,4.842898E1,1.3400822E0,1.17021265E1,1.3481219E1,2.2310658E0,3.3188448E0,1.8184168E1,4.849478E0,4.583431E1,6.97139E0,3.4893456E0,2.9104068E0,1.6505478E1,7.0284095E0,1.1897006E0,1.3168677E0,1.9227239E0,3.0011806E0,1.1804179E0,7.9608607E0,1.072173E1,2.1789725E0,5.864238E0,5.3205466E0],"tree_param":{"num_deleted":"0","num_feature":"23","num_nodes":"77","size_leaf_vector":"1"}},{"base_weights":[-8.6983135E-3,7.685715E-1,-1.1340939E0,1.2032168E0,-1.4101139E-1,6.124005E-1,-1.2276399E0,4.4249502E-1,1.2707376E0,-9.661623E-1,3.6248732E-1,-4.9629855E-1,1.0800819E0,-6.6049427E-1,-1.3811997E0,1.2939541E0,-8.4288585E-1,1.2842531E0,-7.550571E-2,-5.783793E-1,-1.4477953E0,9.011212E-1,-6.606404E-1,-1.1856561E-1,-5.309359E-2,6.109748E-2,3.7867054E-1,4.524698E-1,-1.0909145E0,-1.4321826E0,-1.0734992E0,6.7263536E-2,1.8074473E-2,-1.2009032E0,5.042162E-2,6.8180196E-2,1.0616086E0,-5.008334E-2,3.612295E-2,-1.2267516E0,-1.2372265E-1,-2.3463314E-2,-7.3823504E-2,1.1406627E0,3.2160756E-1,-7.482541E-2,-3.810332E-1,-4.6322227E-2,4.3324906E-1,-1.6876236E-2,4.459545E-2,-5.0966997E-2,6.752161E-2,-1.2915462E0,-6.4096224E-1,-7.571418E-1,-7.256857E-2,-3.8712674E-1,-6.994918E-2,1.095829E-3,-7.223401E-2,2.4759315E-2,6.417162E-2,-1.647127E-2,-6.731268E-2,2.2442538E-2,-5.7797372E-2,5.906855E-2,2.8091554E-2,-1.7167361E-2,2.8160531E-2,3.0494293E-3,-6.4735375E-2,-1.1400143E-2,4.554853E-2,-2.8742895E-2,5.7613153E-2,-6.7019604E-2,-1.599682E-2,2.6878717E-3,-6.296111E-2,-6.50645E-2,2.183426E-2,4.2710837E-2,-2.836137E-2],"categories":[],"categories_nodes":[],"categories_segments":[],"categories_sizes":[],"default_left":[0,0,0,0,0,0,0,0,0,0,0,0,0,0,0,0,0,0,0,0,0,0,0,0,0,0,0,0,0,0,0,0,0,0,0,0,0,0,0,0,0,0,0,0,0,0,0,0,0,0,0,0,0,0,0,0,0,0,0,0,0,0,0,0,0,0,0,0,0,0,0,0,0,0,0,0,0,0,0,0,0,0,0,0,0],"id":10,"left_children":[1,3,5,7,9,11,13,15,17,19,21,23,25,27,29,31,33,35,37,39,41,43,45,47,-1,-1,49,51,53,55,57,-1,-1,59,-1,-1,61,-1,-1,63,65,-1,-1,67,69,-1,71,-1,73,-1,-1,75,-1,77,79,81,-1,83,-1,-1,-1,-1,-1,-1,-1,-1,-1,-1,-1,-1,-1,-1,-1,-1,-1,-1,-1,-1,-1,-1,-1,-1,-1,-1,-1],"loss_changes":[7.0845953E2,1.8956268E2,5.4806732E1,1.6093323E1,6.507684E1,9.603767E0,2.6466614E1,3.1701466E1,5.5062256E0,1.0240234E1,5.431698E1,1.1288763E0,7.925043E-1,3.349923E1,2.3291016E0,3.3763313E-1,8.999185E0,3.7535095E0,3.6055264E0,1.002497E1,3.0776978E-2,8.557007E0,7.422247E0,2.4731026E0,0E0,0E0,1.6137369E0,9.074682E0,3.6838837E0,1.6011353E0,8.17701E0,0E0,0E0,3.1028337E0,0E0,0E0,9.650948E0,0E0,0E0,1.0703716E0,1.3169612E1,0E0,0E0,3.987732E-1,3.4375553E0,0E0,1.0970004E1,0E0,1.2951883E0,0E0,0E0,9.316336E0,0E0,1.1648445E0,7.5403E0,5.6691937E0,0E0,3.6001987E0,0E0,0E0,0E0,0E0,0E0,0E0,0E0,0E0,0E0,0E0,0E0,0E0,0E0,0E0,0E0,0E0,0E0,0E0,0E0,0E0,0E0,0E0,0E0,0E0,0E0,0E0,0E0],"parents":[2147483647,0,0,1,1,2,2,3,3,4,4,5,5,6,6,7,7,8,8,9,9,10,10,11,11,12,12,13,13,14,14,15,15,16,16,17,17,18,18,19,19,20,20,21,21,22,22,23,23,26,26,27,27,28,28,29,29,30,30,33,33,36,36,39,39,40,40,43,43,44,44,46,46,48,48,51,51,53,53,54,54,55,55,57,57],"right_children":[2,4,6,8,10,12,14,16,18,20,22,24,26,28,30,32,34,36,38,40,42,44,46,48,-1,-1,50,52,54,56,58,-1,-1,60,-1,-1,62,-1,-1,64,66,-1,-1,68,70,-1,72,-1,74,-1,-1,76,-1,78,80,82,-1,84,-1,-1,-1,-1,-1,-1,-1,-1,-1,-1,-1,-1,-1,-1,-1,-1,-1,-1,-1,-1,-1,-1,-1,-1,-1,-1,-1],"split_conditions":[1E0,2.5E1,2E0,4.4565887E1,8.245939E1,1.9821432E1,1E0,1.092E2,1E0,1E0,5.6E1,1E0,2.095E1,2.3E1,1E0,4.425E1,2.1E1,1E1,1E0,5.625E1,1.26885E3,1E0,9.335E1,1E0,-5.309359E-2,6.109748E-2,1E0,1E0,8.018309E1,4E0,5.9E1,6.7263536E-2,1.8074473E-2,1E0,5.042162E-2,6.8180196E-2,7.630318E1,-5.008334E-2,3.612295E-2,8.558046E2,3.355746E3,-2.3463314E-2,-7.3823504E-2,1E0,9.385E1,-7.482541E-2,6.9973E3,-4.6322227E-2,1.95E1,-1.6876236E-2,4.459545E-2,7.108516E1,6.752161E-2,1E0,5.5E1,5.3863674E1,-7.256857E-2,1.4635E3,-6.994918E-2,1.095829E-3,-7.223401E-2,2.4759315E-2,6.417162E-2,-1.647127E-2,-6.731268E-2,2.2442538E-2,-5.7797372E-2,5.906855E-2,2.8091554E-2,-1.7167361E-2,2.8160531E-2,3.0494293E-3,-6.4735375E-2,-1.1400143E-2,4.554853E-2,-2.8742895E-2,5.7613153E-2,-6.7019604E-2,-1.599682E-2,2.6878717E-3,-6.296111E-2,-6.50645E-2,2.183426E-2,4.2710837E-2,-2.836137E-2],"split_indices":[7,4,4,14,14,15,9,15,18,8,4,20,14,4,16,14,4,4,12,14,15,8,14,4,0,0,21,21,14,4,4,0,0,6,0,0,14,0,0,15,15,0,0,18,14,0,15,0,14,0,0,14,0,16,4,15,0,15,0,0,0,0,0,0,0,0,0,0,0,0,0,0,0,0,0,0,0,0,0,0,0,0,0,0,0],"split_type":[0,0,0,0,0,0,0,0,0,0,0,0,0,0,0,0,0,0,0,0,0,0,0,0,0,0,0,0,0,0,0,0,0,0,0,0,0,0,0,0,0,0,0,0,0,0,0,0,0,0,0,0,0,0,0,0,0,0,0,0,0,0,0,0,0,0,0,0,0,0,0,0,0,0,0,0,0,0,0,0,0,0,0,0,0],"sum_hessian":[8.0791595E2,4.7805664E2,3.2985928E2,3.2326248E2,1.5479416E2,1.6487772E1,3.1337152E2,2.6969143E1,2.9629333E2,5.8311832E1,9.648233E1,4.873449E0,1.1614324E1,6.7899185E1,2.4547234E2,1.621883E1,1.0750312E1,2.933939E2,2.8994484E0,3.35224E1,2.4789433E1,6.328479E1,3.319754E1,3.647205E0,1.2262437E0,9.04313E0,2.5711942E0,1.8921492E1,4.897769E1,2.0744614E2,3.8026196E1,1.4953203E1,1.2656273E0,9.302645E0,1.4476672E0,2.1252509E2,8.08688E1,1.2237829E0,1.6756655E0,1.3117596E1,2.0404806E1,1.2001276E0,2.3589304E1,4.4091354E1,1.9193438E1,7.230436E0,2.5967106E1,1.2046475E0,2.4425576E0,1.2162912E0,1.3549029E0,1.2728552E1,6.1929393E0,3.2580006E1,1.6397686E1,6.852206E0,2.0059393E2,1.2936164E1,2.5090033E1,1.6975572E0,7.6050873E0,2.3667276E1,5.7201523E1,1.9831342E0,1.1134461E1,1.3488126E1,6.9166794E0,4.0221672E1,3.8696804E0,5.0029335E0,1.4190504E1,1.8129553E1,7.837554E0,1.243735E0,1.1988227E0,9.231402E0,3.4971495E0,3.0659115E1,1.9208897E0,8.151333E0,8.246353E0,4.6449957E0,2.2072108E0,1.1647983E0,1.1771365E1],"tree_param":{"num_deleted":"0","num_feature":"23","num_nodes":"85","size_leaf_vector":"1"}},{"base_weights":[-2.160443E-3,7.207355E-1,-1.0844277E0,1.1572741E0,-2.3737714E-1,4.016981E-1,-1.2261786E0,7.785634E-1,1.2807794E0,-1.0474102E0,2.6823843E-1,-4.9909342E-2,5.9519714E-1,-1.3610861E0,-6.549709E-1,6.1867673E-2,-2.2827487E-1,1.288896E0,-3.8628802E-3,-6.324706E-1,-7.056234E-2,7.999829E-1,-7.286523E-1,9.391603E-1,-1.42661845E-2,-1.0505936E0,-7.060292E-2,8.099816E-1,-1.0830923E0,2.3094814E-1,-1.1967326E0,6.757253E-2,1.1439992E0,-1.3455502E0,7.279015E-1,9.632662E-1,-1.8638675E-1,-7.421175E-2,-4.3146676E-1,-4.6878163E-2,5.746406E-2,-6.1381448E-2,9.13602E-1,3.6158812E-1,-1.2935513E0,3.6147562E-1,1.0909014E0,-4.1878897E-1,-1.2308903E0,-6.924552E-2,2.765268E-2,-2.739248E-2,-6.9428705E-2,3.0325485E-2,6.2461417E-2,-7.026878E-2,-1.6058339E-2,4.836429E-2,-3.0315757E-2,5.5295803E-2,2.1338745E-3,-3.531412E-2,4.7547825E-2,-1.8893309E-3,-6.1891217E-2,5.3672757E-2,5.128622E-3,3.823208E-2,-2.957517E-2,-3.160044E-2,-6.839717E-2,4.5917243E-2,-2.1963043E-2,6.481025E-2,-2.7055617E-3,-4.548573E-2,3.155397E-2,-3.7294224E-2,-6.676715E-2],"categories":[],"categories_nodes":[],"categories_segments":[],"categories_sizes":[],"default_left":[0,0,0,0,0,0,0,0,0,0,0,0,0,0,0,0,0,0,0,0,0,0,0,0,0,0,0,0,0,0,0,0,0,0,0,0,0,0,0,0,0,0,0,0,0,0,0,0,0,0,0,0,0,0,0,0,0,0,0,0,0,0,0,0,0,0,0,0,0,0,0,0,0,0,0,0,0,0,0],"id":11,"left_children":[1,3,5,7,9,11,13,15,17,19,21,-1,23,25,27,-1,29,31,-1,33,-1,35,37,39,41,43,-1,45,47,49,51,-1,53,55,57,59,61,-1,63,-1,-1,-1,65,67,69,71,73,75,77,-1,-1,-1,-1,-1,-1,-1,-1,-1,-1,-1,-1,-1,-1,-1,-1,-1,-1,-1,-1,-1,-1,-1,-1,-1,-1,-1,-1,-1,-1],"loss_changes":[6.2433136E2,2.0038239E2,6.781262E1,1.4384125E1,6.1955303E1,8.335848E0,2.1609161E1,3.881721E1,2.8158875E0,7.875023E0,5.015167E1,0E0,5.40851E0,2.2400513E0,3.7073906E1,0E0,1.2265631E1,6.748352E-1,0E0,2.9056847E1,0E0,1.0077915E1,6.781208E0,7.5708246E0,1.2683599E1,1.3191227E1,0E0,1.3222275E0,3.9115067E0,1.0720056E1,3.3882332E-1,0E0,3.789627E0,7.339401E-1,3.9730167E0,6.8986588E0,6.328456E0,0E0,7.9310136E0,0E0,0E0,0E0,7.186923E-1,2.8436303E0,7.033348E-1,3.4099324E0,1.9229031E0,5.5847383E0,8.4638596E-1,0E0,0E0,0E0,0E0,0E0,0E0,0E0,0E0,0E0,0E0,0E0,0E0,0E0,0E0,0E0,0E0,0E0,0E0,0E0,0E0,0E0,0E0,0E0,0E0,0E0,0E0,0E0,0E0,0E0,0E0],"parents":[2147483647,0,0,1,1,2,2,3,3,4,4,5,5,6,6,7,7,8,8,9,9,10,10,12,12,13,13,14,14,16,16,17,17,19,19,21,21,22,22,23,23,24,24,25,25,27,27,28,28,29,29,30,30,32,32,33,33,34,34,35,35,36,36,38,38,42,42,43,43,44,44,45,45,46,46,47,47,48,48],"right_children":[2,4,6,8,10,12,14,16,18,20,22,-1,24,26,28,-1,30,32,-1,34,-1,36,38,40,42,44,-1,46,48,50,52,-1,54,56,58,60,62,-1,64,-1,-1,-1,66,68,70,72,74,76,78,-1,-1,-1,-1,-1,-1,-1,-1,-1,-1,-1,-1,-1,-1,-1,-1,-1,-1,-1,-1,-1,-1,-1,-1,-1,-1,-1,-1,-1,-1],"split_conditions":[1E0,2.6E1,4E0,6.495E1,8.045E1,1.945E1,1E0,7E0,1E0,4.4E1,5.6E1,-4.9909342E-2,2E0,1E0,3.7765593E3,6.1867673E-2,1E0,1E1,-3.8628802E-3,2.169922E3,-7.056234E-2,1E0,9.335E1,1E0,5.3863674E1,7.7153094E2,-7.060292E-2,9.552805E1,5.3E1,3.859E2,1E0,6.757253E-2,7.58E1,7.056601E1,7.905E1,1E0,5.32725E3,-7.421175E-2,6.9973E3,-4.6878163E-2,5.746406E-2,-6.1381448E-2,1E0,1E0,2.3E1,2.1091917E3,1.053198E2,5.23495E3,1E0,-6.924552E-2,2.765268E-2,-2.739248E-2,-6.9428705E-2,3.0325485E-2,6.2461417E-2,-7.026878E-2,-1.6058339E-2,4.836429E-2,-3.0315757E-2,5.5295803E-2,2.1338745E-3,-3.531412E-2,4.7547825E-2,-1.8893309E-3,-6.1891217E-2,5.3672757E-2,5.128622E-3,3.823208E-2,-2.957517E-2,-3.160044E-2,-6.839717E-2,4.5917243E-2,-2.1963043E-2,6.481025E-2,-2.7055617E-3,-4.548573E-2,3.155397E-2,-3.7294224E-2,-6.676715E-2],"split_indices":[10,4,4,14,14,14,16,4,18,4,4,0,4,8,15,0,2,4,0,15,0,18,14,4,15,15,0,14,4,15,5,0,14,14,14,3,15,0,15,0,0,0,22,22,4,15,14,15,8,0,0,0,0,0,0,0,0,0,0,0,0,0,0,0,0,0,0,0,0,0,0,0,0,0,0,0,0,0,0],"split_type":[0,0,0,0,0,0,0,0,0,0,0,0,0,0,0,0,0,0,0,0,0,0,0,0,0,0,0,0,0,0,0,0,0,0,0,0,0,0,0,0,0,0,0,0,0,0,0,0,0,0,0,0,0,0,0,0,0,0,0,0,0,0,0,0,0,0,0,0,0,0,0,0,0,0,0,0,0,0,0],"sum_hessian":[7.960046E2,4.7743674E2,3.1856784E2,3.2785187E2,1.4958487E2,2.7580303E1,2.9098755E2,8.242169E1,2.4543019E2,5.7074993E1,9.250988E1,2.844308E0,2.4735994E1,2.3427403E2,5.6713505E1,5.6463696E1,2.5957994E1,2.4402264E2,1.4075445E0,2.7944193E1,2.9130802E1,6.04586E1,3.2051277E1,1.5466305E1,9.26969E0,3.6083878E1,1.9819016E2,1.2624129E1,4.4089375E1,1.8125011E1,7.8329825E0,1.646242E2,7.939844E1,1.834107E1,9.603123E0,5.189186E1,8.566741E0,7.920191E0,2.4131084E1,1.2086911E0,1.4257614E1,3.8768773E0,5.3928127E0,5.2250743E0,3.0858805E1,5.742549E0,6.88158E0,8.721701E0,3.5367676E1,2.4641123E0,1.56609E1,2.6672013E0,5.165781E0,1.4106895E1,6.529154E1,1.6977629E1,1.3634413E0,8.375425E0,1.2276973E0,4.4755466E1,7.136394E0,6.1393595E0,2.427381E0,1.6918158E1,7.212928E0,4.234606E0,1.158207E0,3.8111148E0,1.4139596E0,4.0792365E0,2.6779568E1,3.3004134E0,2.4421356E0,5.723328E0,1.1582515E0,6.033766E0,2.6879342E0,7.709771E0,2.7657904E1],"tree_param":{"num_deleted":"0","num_feature":"23","num_nodes":"79","size_leaf_vector":"1"}},{"base_weights":[9.562575E-3,7.4045557E-1,-1.0718062E0,8.884167E-1,-9.415584E-1,4.5404473E-1,-1.1455668E0,9.969385E-1,-6.433406E-2,-1.2653811E0,-3.8726455E-1,7.662255E-1,-5.729526E-2,-5.4380894E-1,-1.2949599E0,1.0703914E0,1.6861992E-1,-5.7192396E-2,-7.2294734E-2,1.22097425E-1,-1.0253439E0,1.400877E-1,5.1427882E-2,7.861039E-1,-8.3762014E-1,-1.1477332E0,-7.056248E-2,1.1231618E0,2.1415801E-1,9.89685E-1,-2.8221568E-1,-5.2298088E-2,5.199502E-2,-6.3699794E-1,8.884888E-1,-5.7709463E-2,-1.5718047E-2,2.705059E-1,-5.7599153E-3,2.5879246E-1,6.134363E-2,-6.331831E-2,3.414337E-2,-1.2591168E0,-4.612235E-1,5.8033567E-2,1.91585E-2,-4.549521E-2,3.3589505E-2,-6.8159434E-3,6.274841E-2,-6.660611E-2,1.5336195E-2,1.6863486E-2,-5.830769E-2,5.8901804E-3,5.4941665E-2,-6.181497E-4,2.3351144E-2,3.226192E-2,-4.0211037E-2,4.4860613E-2,-3.706738E-2,-3.4658752E-2,-6.492225E-2,4.6471074E-2,-3.385626E-2],"categories":[],"categories_nodes":[],"categories_segments":[],"categories_sizes":[],"default_left":[0,0,0,0,0,0,0,0,0,0,0,0,0,0,0,0,0,0,0,0,0,0,0,0,0,0,0,0,0,0,0,0,0,0,0,0,0,0,0,0,0,0,0,0,0,0,0,0,0,0,0,0,0,0,0,0,0,0,0,0,0,0,0,0,0,0,0],"id":12,"left_children":[1,3,5,7,9,11,13,15,-1,17,19,21,-1,23,25,27,29,31,-1,33,35,37,-1,39,41,43,-1,45,47,49,51,-1,-1,53,55,-1,-1,57,-1,59,-1,-1,61,63,65,-1,-1,-1,-1,-1,-1,-1,-1,-1,-1,-1,-1,-1,-1,-1,-1,-1,-1,-1,-1,-1,-1],"loss_changes":[6.199492E2,1.173165E2,3.612448E1,1.0294827E2,6.389515E0,8.52172E0,2.6449188E1,2.4813477E1,0E0,5.0976143E0,5.187309E0,2.0576477E0,0E0,2.4804998E1,2.5106812E0,1.6800537E1,1.31048565E1,5.566414E0,0E0,6.124567E0,2.8028202E-1,2.0147571E-1,0E0,2.4013405E0,1.9142101E1,7.9695587E0,0E0,9.409454E0,1.2509643E1,3.9059057E0,1.4719848E1,0E0,0E0,3.1682746E0,7.089977E-1,0E0,0E0,2.1058643E-1,0E0,3.2274578E0,0E0,0E0,1.2591901E1,1.2284546E0,5.789783E0,0E0,0E0,0E0,0E0,0E0,0E0,0E0,0E0,0E0,0E0,0E0,0E0,0E0,0E0,0E0,0E0,0E0,0E0,0E0,0E0,0E0,0E0],"parents":[2147483647,0,0,1,1,2,2,3,3,4,4,5,5,6,6,7,7,9,9,10,10,11,11,13,13,14,14,15,15,16,16,17,17,19,19,20,20,21,21,23,23,24,24,25,25,27,27,28,28,29,29,30,30,33,33,34,34,37,37,39,39,42,42,43,43,44,44],"right_children":[2,4,6,8,10,12,14,16,-1,18,20,22,-1,24,26,28,30,32,-1,34,36,38,-1,40,42,44,-1,46,48,50,52,-1,-1,54,56,-1,-1,58,-1,60,-1,-1,62,64,66,-1,-1,-1,-1,-1,-1,-1,-1,-1,-1,-1,-1,-1,-1,-1,-1,-1,-1,-1,-1,-1,-1],"split_conditions":[1E0,1E0,2.445E1,1E0,9.475162E1,2.095E1,1E0,1E0,-6.433406E-2,9.968003E2,5.82665E3,1.9821432E1,-5.729526E-2,7.7153094E2,1E0,1E0,4.0605E2,1E0,-7.2294734E-2,5.32725E3,1.0595E2,1.965E1,5.1427882E-2,6.625E1,9.05E1,8.53E1,-7.056248E-2,4.90825E3,7E1,3.5062775E1,6.445E1,-5.2298088E-2,5.199502E-2,3.6415E3,9.981812E1,-5.7709463E-2,-1.5718047E-2,1.95E1,-5.7599153E-3,5.525E1,6.134363E-2,-6.331831E-2,4.23415E3,6.835E1,1.39085E3,5.8033567E-2,1.91585E-2,-4.549521E-2,3.3589505E-2,-6.8159434E-3,6.274841E-2,-6.660611E-2,1.5336195E-2,1.6863486E-2,-5.830769E-2,5.8901804E-3,5.4941665E-2,-6.181497E-4,2.3351144E-2,3.226192E-2,-4.0211037E-2,4.4860613E-2,-3.706738E-2,-3.4658752E-2,-6.492225E-2,4.6471074E-2,-3.385626E-2],"split_indices":[10,18,15,19,14,14,8,3,0,15,15,15,0,15,19,20,15,12,0,15,14,14,0,14,14,14,0,15,14,14,14,0,0,15,14,0,0,14,0,14,0,0,15,15,15,0,0,0,0,0,0,0,0,0,0,0,0,0,0,0,0,0,0,0,0,0,0],"split_type":[0,0,0,0,0,0,0,0,0,0,0,0,0,0,0,0,0,0,0,0,0,0,0,0,0,0,0,0,0,0,0,0,0,0,0,0,0,0,0,0,0,0,0,0,0,0,0,0,0,0,0,0,0,0,0,0,0,0,0,0,0,0,0,0,0,0,0],"sum_hessian":[7.823794E2,4.6703052E2,3.1534888E2,4.2970282E2,3.7327694E1,1.4303509E1,3.0104538E2,4.0979846E2,1.9904364E1,2.2752588E1,1.4575104E1,1.2404289E1,1.8992198E0,6.0796432E1,2.4024895E2,3.761503E2,3.3648167E1,3.128719E0,1.9623869E1,8.554733E0,6.0203705E0,4.115462E0,8.288828E0,1.0697865E1,5.0098568E1,1.10818565E2,1.2943037E2,3.5402002E2,2.2130285E1,1.150321E1,2.2144955E1,1.6701134E0,1.4586056E0,4.3826456E0,4.172088E0,4.568999E0,1.4513714E0,2.6844401E0,1.4310215E0,5.5933847E0,5.10448E0,3.327888E1,1.6819689E1,9.4630974E1,1.6187593E1,3.3639972E2,1.7620295E1,6.117021E0,1.6013264E1,2.2860646E0,9.217146E0,7.504584E0,1.4640371E1,1.6701806E0,2.712465E0,1.2290393E0,2.943049E0,1.4845911E0,1.1998491E0,4.3903384E0,1.203046E0,7.886069E0,8.9336195E0,7.3589787E0,8.7271996E1,1.7312965E0,1.4456297E1],"tree_param":{"num_deleted":"0","num_feature":"23","num_nodes":"67","size_leaf_vector":"1"}},{"base_weights":[-2.8023766E-3,7.3020273E-1,-1.0337942E0,1.1182213E0,-9.980035E-2,2.19844E-1,-1.1412989E0,6.28312E-2,8.8178277E-1,1.5029322E-1,-6.810712E-2,-2.3646707E-2,1.0113664E0,-1.2845387E0,-5.773838E-1,-6.2227976E-2,9.5732504E-1,5.0738096E-1,-8.5718334E-1,5.180188E-1,-6.075274E-2,6.2361624E-2,5.087566E-3,-9.4377106E-1,-6.75762E-2,7.028555E-1,-1.0418335E0,1.0431552E0,-7.4662626E-2,-1.1798322E0,6.916291E-1,-1.176564E0,-2.3704372E-1,-4.309229E-2,6.955134E-1,-6.1498564E-2,-6.1177947E-2,1.0090305E0,-1.0126833E-2,-5.69003E-1,-6.285657E-2,5.4064848E-2,8.291134E-3,-4.9461387E-2,3.4423433E-2,1.3072625E-2,-7.172878E-2,4.879058E-2,3.8001605E-3,-6.735351E-2,-2.9696519E-2,5.1042914E-2,-5.0387304E-2,3.2711308E-3,4.0947165E-2,1.3277242E-2,-4.4530522E-2,5.2776933E-2,1.4148883E-2,-6.1970353E-2,4.9973562E-2,-5.2487638E-2,2.53432E-2],"categories":[],"categories_nodes":[],"categories_segments":[],"categories_sizes":[],"default_left":[0,0,0,0,0,0,0,0,0,0,0,0,0,0,0,0,0,0,0,0,0,0,0,0,0,0,0,0,0,0,0,0,0,0,0,0,0,0,0,0,0,0,0,0,0,0,0,0,0,0,0,0,0,0,0,0,0,0,0,0,0,0,0],"id":13,"left_children":[1,3,5,7,9,11,13,-1,15,17,-1,19,21,23,25,-1,27,29,31,33,-1,-1,-1,35,-1,37,39,41,43,45,47,49,51,-1,53,55,-1,57,59,61,-1,-1,-1,-1,-1,-1,-1,-1,-1,-1,-1,-1,-1,-1,-1,-1,-1,-1,-1,-1,-1,-1,-1],"loss_changes":[5.802504E2,1.4463728E2,4.3250122E1,8.90152E0,4.5627098E1,5.042094E0,2.3007385E1,0E0,1.9871498E1,4.396058E1,0E0,1.4110212E1,1.1921906E0,4.0576477E0,3.7224094E1,0E0,1.007531E1,2.8779606E1,6.065428E0,4.288273E0,0E0,0E0,0E0,1.0217667E1,0E0,3.7070131E0,3.910118E0,3.3098526E0,7.3809915E0,3.7623453E0,1.4224194E1,1.2752857E0,1.279941E1,0E0,1.0273247E0,3.244236E0,0E0,1.01691246E-1,8.781503E0,8.829819E0,0E0,0E0,0E0,0E0,0E0,0E0,0E0,0E0,0E0,0E0,0E0,0E0,0E0,0E0,0E0,0E0,0E0,0E0,0E0,0E0,0E0,0E0,0E0],"parents":[2147483647,0,0,1,1,2,2,3,3,4,4,5,5,6,6,8,8,9,9,11,11,12,12,13,13,14,14,16,16,17,17,18,18,19,19,23,23,25,25,26,26,27,27,28,28,29,29,30,30,31,31,32,32,34,34,35,35,37,37,38,38,39,39],"right_children":[2,4,6,8,10,12,14,-1,16,18,-1,20,22,24,26,-1,28,30,32,34,-1,-1,-1,36,-1,38,40,42,44,46,48,50,52,-1,54,56,-1,58,60,62,-1,-1,-1,-1,-1,-1,-1,-1,-1,-1,-1,-1,-1,-1,-1,-1,-1,-1,-1,-1,-1,-1,-1],"split_conditions":[1E0,2.6E1,4E0,8E0,1E0,5.6876766E1,1E0,6.28312E-2,3.905264E2,1E0,-6.810712E-2,2.445E1,1E0,1E0,3.4195E3,-6.2227976E-2,1E0,1.91215E3,5.32725E3,1E0,-6.075274E-2,6.2361624E-2,5.087566E-3,2.3E1,-6.75762E-2,3E1,5.9E1,1E0,1E0,8.655821E2,1E0,1E0,5.9E1,-4.309229E-2,1E0,1E0,-6.1177947E-2,1E0,3.1977502E3,5.32725E3,-6.285657E-2,5.4064848E-2,8.291134E-3,-4.9461387E-2,3.4423433E-2,1.3072625E-2,-7.172878E-2,4.879058E-2,3.8001605E-3,-6.735351E-2,-2.9696519E-2,5.1042914E-2,-5.0387304E-2,3.2711308E-3,4.0947165E-2,1.3277242E-2,-4.4530522E-2,5.2776933E-2,1.4148883E-2,-6.1970353E-2,4.9973562E-2,-5.2487638E-2,2.53432E-2],"split_indices":[7,4,4,4,19,15,16,0,15,18,0,15,22,9,15,0,3,15,15,4,0,0,0,4,0,4,4,22,16,15,8,21,4,0,22,22,0,22,15,15,0,0,0,0,0,0,0,0,0,0,0,0,0,0,0,0,0,0,0,0,0,0,0],"split_type":[0,0,0,0,0,0,0,0,0,0,0,0,0,0,0,0,0,0,0,0,0,0,0,0,0,0,0,0,0,0,0,0,0,0,0,0,0,0,0,0,0,0,0,0,0,0,0,0,0,0,0,0,0,0,0,0,0,0,0,0,0,0,0],"sum_hessian":[7.658103E2,4.4775867E2,3.1805164E2,3.04882E2,1.4287666E2,2.5037575E1,2.9301407E2,1.8958865E2,1.1529334E2,1.1998611E2,2.2890553E1,1.988929E1,5.148284E0,2.3264268E2,6.037138E1,3.4245667E0,1.11868774E2,8.895388E1,3.1032227E1,1.4061522E1,5.8277693E0,3.7934618E0,1.3548222E0,4.0697174E1,1.9194551E2,1.5934682E1,4.44367E1,1.0326909E2,8.599686E0,8.22566E0,8.072822E1,1.9890884E1,1.1141341E1,1.1631831E0,1.2898338E1,1.00923E1,3.0604874E1,1.0857106E1,5.0775757E0,1.5042869E1,2.939383E1,9.874376E1,4.5253315E0,3.7769601E0,4.8227253E0,1.231538E0,6.9941225E0,5.4831894E1,2.5896326E1,1.4372712E1,5.5181737E0,4.1094766E0,7.0318646E0,2.3634293E0,1.0534909E1,7.7249255E0,2.3673751E0,9.777022E0,1.0800838E0,2.1870334E0,2.8905423E0,1.0413765E1,4.629104E0],"tree_param":{"num_deleted":"0","num_feature":"23","num_nodes":"63","size_leaf_vector":"1"}},{"base_weights":[-9.773441E-4,6.7784554E-1,-1.0302162E0,1.1027708E0,-2.0430678E-1,1.9896911E-1,-1.1432207E0,1.1270181E0,-5.7379246E-1,1.2925754E-1,-8.867953E-1,5.3299762E-2,-5.3511832E-2,-1.2670336E0,-6.3042116E-1,6.2177684E-2,8.414081E-1,-5.8588285E-2,1.4001086E-2,3.5498637E-1,-8.0781883E-1,-6.017602E-1,-6.1764754E-2,3.1513056E-1,-6.7961484E-1,-9.607175E-1,-6.593215E-2,2.890699E-1,-1.1327242E0,9.522986E-1,-3.6633956E-1,4.8760387E-1,-1.131265E0,-1.9211432E-1,-9.202143E-1,-9.8514223E-1,-1.9527853E-1,5.828791E-1,-5.921128E-2,2.8721005E-1,-6.1025865E-2,-2.1042058E-1,-1.1899482E0,4.560264E-1,-4.9960893E-2,-5.5236185E-1,-6.3774064E-2,5.039246E-2,-4.3676975E-3,-4.6834093E-2,1.9405028E-2,2.8314052E-2,-4.0170226E-2,-1.9060476E-2,-6.1587412E-2,-4.7208726E-2,1.8795611E-2,-6.408053E-2,-3.0879129E-2,-2.6914185E-2,-6.450655E-2,6.5550054E-3,-5.8814354E-2,3.73238E-2,4.772998E-3,-1.8757284E-2,4.6437852E-2,2.0278774E-3,-4.804515E-2,-6.650408E-2,-6.968561E-3,5.1007546E-2,8.3138E-3,4.3607964E-3,-4.346856E-2],"categories":[],"categories_nodes":[],"categories_segments":[],"categories_sizes":[],"default_left":[0,0,0,0,0,0,0,0,0,0,0,0,0,0,0,0,0,0,0,0,0,0,0,0,0,0,0,0,0,0,0,0,0,0,0,0,0,0,0,0,0,0,0,0,0,0,0,0,0,0,0,0,0,0,0,0,0,0,0,0,0,0,0,0,0,0,0,0,0,0,0,0,0,0,0],"id":14,"left_children":[1,3,5,7,9,11,13,15,17,19,21,-1,23,25,27,-1,29,-1,-1,31,33,35,-1,37,39,41,-1,43,45,47,49,51,53,55,57,59,61,63,-1,65,-1,67,69,71,-1,73,-1,-1,-1,-1,-1,-1,-1,-1,-1,-1,-1,-1,-1,-1,-1,-1,-1,-1,-1,-1,-1,-1,-1,-1,-1,-1,-1,-1,-1],"loss_changes":[5.246274E2,1.6983391E2,4.167929E1,1.3067169E1,3.3793816E1,5.7436295E0,1.6562561E1,8.989197E0,2.890305E0,2.1491138E1,4.093769E0,0E0,5.077462E0,2.1996155E0,2.5809252E1,0E0,1.246479E1,0E0,0E0,1.6611532E1,1.19102E0,4.2858505E0,0E0,6.288623E0,4.5997815E0,5.8210907E0,0E0,4.8194237E0,2.2684555E0,4.8894424E0,3.9477954E0,8.124098E0,5.6214333E-2,2.1982493E0,1.0076723E0,1.2873192E0,5.019436E0,9.2569494E-1,0E0,1.9310879E0,0E0,1.82383E0,3.7638397E0,2.8783634E0,0E0,1.8697603E0,0E0,0E0,0E0,0E0,0E0,0E0,0E0,0E0,0E0,0E0,0E0,0E0,0E0,0E0,0E0,0E0,0E0,0E0,0E0,0E0,0E0,0E0,0E0,0E0,0E0,0E0,0E0,0E0,0E0],"parents":[2147483647,0,0,1,1,2,2,3,3,4,4,5,5,6,6,7,7,8,8,9,9,10,10,12,12,13,13,14,14,16,16,19,19,20,20,21,21,23,23,24,24,25,25,27,27,28,28,29,29,30,30,31,31,32,32,33,33,34,34,35,35,36,36,37,37,39,39,41,41,42,42,43,43,45,45],"right_children":[2,4,6,8,10,12,14,16,18,20,22,-1,24,26,28,-1,30,-1,-1,32,34,36,-1,38,40,42,-1,44,46,48,50,52,54,56,58,60,62,64,-1,66,-1,68,70,72,-1,74,-1,-1,-1,-1,-1,-1,-1,-1,-1,-1,-1,-1,-1,-1,-1,-1,-1,-1,-1,-1,-1,-1,-1,-1,-1,-1,-1,-1,-1],"split_conditions":[1E0,2.6E1,4E0,1E0,1E0,1E0,1E0,1E1,1E0,1E0,5.9E1,5.3299762E-2,2E0,1.6E1,4.9E1,6.2177684E-2,1E0,-5.8588285E-2,1.4001086E-2,1E0,3.9E1,1E0,-6.1764754E-2,1E0,1E0,1E0,-6.593215E-2,1E0,1E0,1E0,1E0,1E0,1E0,3.1E1,5.4E1,1E0,1E0,1E0,-5.921128E-2,3E0,-6.1025865E-2,1E0,1.5E1,1.6E1,-4.9960893E-2,1E0,-6.3774064E-2,5.039246E-2,-4.3676975E-3,-4.6834093E-2,1.9405028E-2,2.8314052E-2,-4.0170226E-2,-1.9060476E-2,-6.1587412E-2,-4.7208726E-2,1.8795611E-2,-6.408053E-2,-3.0879129E-2,-2.6914185E-2,-6.450655E-2,6.5550054E-3,-5.8814354E-2,3.73238E-2,4.772998E-3,-1.8757284E-2,4.6437852E-2,2.0278774E-3,-4.804515E-2,-6.650408E-2,-6.968561E-3,5.1007546E-2,8.3138E-3,4.3607964E-3,-4.346856E-2],"split_indices":[10,4,4,18,7,8,16,4,12,18,4,0,4,4,4,0,3,0,0,19,4,16,0,20,22,17,0,19,8,22,16,22,9,4,4,6,3,3,0,4,0,18,4,4,0,9,0,0,0,0,0,0,0,0,0,0,0,0,0,0,0,0,0,0,0,0,0,0,0,0,0,0,0,0,0],"split_type":[0,0,0,0,0,0,0,0,0,0,0,0,0,0,0,0,0,0,0,0,0,0,0,0,0,0,0,0,0,0,0,0,0,0,0,0,0,0,0,0,0,0,0,0,0,0,0,0,0,0,0,0,0,0,0,0,0,0,0,0,0,0,0,0,0,0,0,0,0,0,0,0,0,0,0],"sum_hessian":[7.488939E2,4.5147205E2,2.9742188E2,3.0453165E2,1.4694037E2,2.497711E1,2.7244476E2,3.0051328E2,4.0184007E0,9.924518E1,4.7695194E1,4.9063826E0,2.0070726E1,2.1827298E2,5.417179E1,2.1104709E2,8.946616E1,2.1442642E0,1.8741366E0,8.0479866E1,1.8765316E1,2.7736477E1,1.9958717E1,1.2945337E1,7.1253896E0,3.4301132E1,1.8397185E2,1.9288227E1,3.4883564E1,8.213626E1,7.3299093E0,7.4503845E1,5.97602E0,3.3149931E0,1.5450323E1,1.3541207E1,1.4195269E1,1.1502515E1,1.4428225E0,2.72452E0,4.4008694E0,8.476049E0,2.5825085E1,1.7647242E1,1.6409847E0,7.847935E0,2.703563E1,7.79992E1,4.1370597E0,4.03669E0,3.2932193E0,7.075333E1,3.7505128E0,1.2723497E0,4.7036705E0,1.1414826E0,2.1735106E0,5.5672035E0,9.88312E0,6.614627E0,6.926581E0,1.1301617E1,2.8936524E0,8.214067E0,3.2884479E0,1.5448307E0,1.1796893E0,7.0607386E0,1.4153111E0,2.2551022E1,3.2740624E0,5.1329474E0,1.2514295E1,2.840998E0,5.006937E0],"tree_param":{"num_deleted":"0","num_feature":"23","num_nodes":"75","size_leaf_vector":"1"}},{"base_weights":[-1.2854498E-2,6.474044E-1,-9.6251684E-1,1.0373478E0,-1.7401974E-1,7.297751E-1,-1.0623018E0,6.152143E-1,1.177506E0,-8.9331114E-1,2.5798136E-1,-3.0085867E-2,8.696829E-1,-4.651388E-1,-1.2298932E0,1.069521E0,-2.1336704E-1,6.294846E-2,9.530038E-1,-5.671758E-1,-6.456079E-2,8.3101034E-1,-4.4976035E-1,9.9311936E-1,-4.8353784E-3,4.1010448E-1,-8.084577E-1,-6.996756E-1,-1.2624329E0,1.1213197E0,-3.094021E-2,-9.5527446E-1,3.694875E-1,-7.2506174E-2,1.0521245E0,-1.0394176E0,1.1660673E-1,1.0176586E0,2.72036E-2,-9.907497E-1,-4.8767522E-2,4.5139852E-1,5.47629E-2,-7.535856E-2,6.0676422E-2,-1.1614383E0,-2.1726385E-1,-9.7172177E-1,4.207912E-2,-6.589613E-2,-9.55598E-1,5.8096077E-2,2.5952166E-2,-4.5735496E-3,-7.738342E-2,4.3730136E-2,-2.3765022E-2,-6.7243204E-3,5.420884E-2,-5.9881832E-2,-1.5276012E-2,6.381456E-2,-3.1001562E-2,5.735696E-2,3.5825282E-2,-3.493334E-2,4.4239145E-2,-3.1225163E-2,-6.288614E-2,2.3615953E-2,-4.5397863E-2,-4.366746E-3,4.359738E-2,2.5566254E-2,-2.4158677E-2,-5.9259217E-2,-1.3044648E-2,1.726773E-2,-4.822086E-2,-2.2385193E-2,-6.331882E-2,3.338491E-2,-5.3173482E-2],"categories":[],"categories_nodes":[],"categories_segments":[],"categories_sizes":[],"default_left":[0,0,0,0,0,0,0,0,0,0,0,0,0,0,0,0,0,0,0,0,0,0,0,0,0,0,0,0,0,0,0,0,0,0,0,0,0,0,0,0,0,0,0,0,0,0,0,0,0,0,0,0,0,0,0,0,0,0,0,0,0,0,0,0,0,0,0,0,0,0,0,0,0,0,0,0,0,0,0,0,0,0,0],"id":15,"left_children":[1,3,5,7,9,11,13,15,17,19,21,-1,23,25,27,29,31,-1,33,35,-1,37,39,41,-1,43,45,47,49,51,-1,53,55,-1,57,59,61,63,65,67,69,71,-1,73,-1,75,77,79,-1,-1,81,-1,-1,-1,-1,-1,-1,-1,-1,-1,-1,-1,-1,-1,-1,-1,-1,-1,-1,-1,-1,-1,-1,-1,-1,-1,-1,-1,-1,-1,-1,-1,-1],"loss_changes":[4.5949463E2,1.3864626E2,5.1525574E1,1.662741E1,4.3736847E1,3.7510948E0,2.7871521E1,2.8534578E1,2.8068542E0,6.1144524E0,3.6164364E1,0E0,2.0151987E0,1.953008E1,2.9351501E0,4.9558105E0,1.2228638E1,0E0,1.6399994E1,1.0059953E1,0E0,7.3413887E0,8.657852E0,2.9987144E-1,0E0,7.3711114E0,9.394316E0,7.1241126E0,2.2697754E0,5.618553E-1,0E0,6.1841116E0,7.2863398E0,0E0,2.448761E0,1.759758E0,1.2300339E1,7.313385E-1,7.019578E0,8.7994576E-1,1.1218951E1,9.774866E-1,0E0,3.2559311E0,0E0,3.048439E-1,8.114867E0,1.4785881E0,0E0,0E0,6.905739E0,0E0,0E0,0E0,0E0,0E0,0E0,0E0,0E0,0E0,0E0,0E0,0E0,0E0,0E0,0E0,0E0,0E0,0E0,0E0,0E0,0E0,0E0,0E0,0E0,0E0,0E0,0E0,0E0,0E0,0E0,0E0,0E0],"parents":[2147483647,0,0,1,1,2,2,3,3,4,4,5,5,6,6,7,7,8,8,9,9,10,10,12,12,13,13,14,14,15,15,16,16,18,18,19,19,21,21,22,22,23,23,25,25,26,26,27,27,28,28,29,29,31,31,32,32,34,34,35,35,36,36,37,37,38,38,39,39,40,40,41,41,43,43,45,45,46,46,47,47,50,50],"right_children":[2,4,6,8,10,12,14,16,18,20,22,-1,24,26,28,30,32,-1,34,36,-1,38,40,42,-1,44,46,48,50,52,-1,54,56,-1,58,60,62,64,66,68,70,72,-1,74,-1,76,78,80,-1,-1,82,-1,-1,-1,-1,-1,-1,-1,-1,-1,-1,-1,-1,-1,-1,-1,-1,-1,-1,-1,-1,-1,-1,-1,-1,-1,-1,-1,-1,-1,-1,-1,-1],"split_conditions":[1E0,2.6E1,2E0,6.625E1,8.1E1,1.945E1,1E0,7E0,1.1E1,4.9E1,1E0,-3.0085867E-2,1E0,2.3E1,6E0,6.035E1,6.559E2,6.294846E-2,8.918289E2,2.2436133E3,-6.456079E-2,5.6E1,9.925E1,1E0,-4.8353784E-3,6.905E1,1E0,2.54E1,1E0,1E0,-3.094021E-2,1E0,9.4775E2,-7.2506174E-2,7E1,6.745E1,2.61925E3,1E0,1.044E2,5.4E1,6.5E1,1E0,5.47629E-2,5.0303046E2,6.0676422E-2,8.1E1,5.6E1,1E0,4.207912E-2,-6.589613E-2,3.1E1,5.8096077E-2,2.5952166E-2,-4.5735496E-3,-7.738342E-2,4.3730136E-2,-2.3765022E-2,-6.7243204E-3,5.420884E-2,-5.9881832E-2,-1.5276012E-2,6.381456E-2,-3.1001562E-2,5.735696E-2,3.5825282E-2,-3.493334E-2,4.4239145E-2,-3.1225163E-2,-6.288614E-2,2.3615953E-2,-4.5397863E-2,-4.366746E-3,4.359738E-2,2.5566254E-2,-2.4158677E-2,-5.9259217E-2,-1.3044648E-2,1.726773E-2,-4.822086E-2,-2.2385193E-2,-6.331882E-2,3.338491E-2,-5.3173482E-2],"split_indices":[7,4,4,14,14,14,9,4,4,4,8,0,6,4,4,14,15,0,15,15,0,4,14,22,0,14,16,14,16,3,0,6,15,0,14,14,15,0,14,4,4,13,0,15,0,14,4,22,0,0,4,0,0,0,0,0,0,0,0,0,0,0,0,0,0,0,0,0,0,0,0,0,0,0,0,0,0,0,0,0,0,0,0],"split_type":[0,0,0,0,0,0,0,0,0,0,0,0,0,0,0,0,0,0,0,0,0,0,0,0,0,0,0,0,0,0,0,0,0,0,0,0,0,0,0,0,0,0,0,0,0,0,0,0,0,0,0,0,0,0,0,0,0,0,0,0,0,0,0,0,0,0,0,0,0,0,0,0,0,0,0,0,0,0,0,0,0,0,0],"sum_hessian":[7.308255E2,4.31288E2,2.9953748E2,2.9227664E2,1.3901135E2,1.6327057E1,2.8321042E2,7.4196945E1,2.1807971E2,5.1760735E1,8.725062E1,1.2385982E0,1.5088459E1,6.2891262E1,2.2031917E2,4.7733917E1,2.6463028E1,1.5663507E2,6.1444637E1,2.9778631E1,2.1982105E1,4.811762E1,3.9133003E1,1.3354979E1,1.7334809E0,1.7664238E1,4.5227024E1,1.4040375E1,2.062788E2,4.6638847E1,1.0950669E0,1.1361797E1,1.5101232E1,1.894069E0,5.9550568E1,1.7306273E1,1.2472359E1,3.8834087E1,9.283531E0,1.6032463E1,2.3100538E1,2.9782834E0,1.0376695E1,1.15758295E1,6.088408E0,2.7714891E1,1.7512133E1,1.2248015E1,1.7923598E0,1.7189679E2,3.4382E1,4.2822777E1,3.8160708E0,5.091703E0,6.270094E0,9.428472E0,5.6727605E0,1.4821948E0,5.8068375E1,1.3717144E1,3.589128E0,4.560385E0,7.911974E0,2.519314E1,1.3640945E1,5.128219E0,4.1553116E0,8.167327E0,7.865137E0,1.465983E1,8.440708E0,1.6530359E0,1.3252475E0,4.6428285E0,6.933001E0,2.6694912E1,1.0199807E0,1.0296487E1,7.2156463E0,5.3150587E0,6.9329567E0,1.8190138E0,3.2562984E1],"tree_param":{"num_deleted":"0","num_feature":"23","num_nodes":"83","size_leaf_vector":"1"}},{"base_weights":[1.4247207E-2,6.6906446E-1,-9.6991414E-1,1.0698593E0,1.086633E-1,2.0716617E-1,-1.0724345E0,1.1365026E0,3.0036825E-1,-1.1350442E0,3.582191E-1,-6.135181E-1,4.3576026E-1,-5.469898E-1,-1.2153653E0,5.2839726E-1,1.1858442E0,-4.421722E-1,1.033715E0,-1.2565747E0,-7.4849844E-1,5.102709E-1,-5.9068214E-2,-4.5405656E-2,1.45421745E-2,5.8897984E-1,-4.4725064E-2,-2.5751263E-1,-6.4422764E-2,-8.9593035E-1,-6.288357E-2,5.680236E-2,-7.1355605E-1,1.2101358E0,6.4637804E-1,6.400833E-1,-6.1924096E-2,5.4677278E-2,1.1720813E-2,-6.9952E-2,-8.1295437E-1,9.448746E-3,-5.1439017E-2,7.491128E-1,-6.274286E-1,3.1173146E-1,9.9427277E-1,-8.545202E-1,2.21536E-1,3.66723E-3,-1.0822165E0,-5.073743E-2,1.6261804E-3,6.074533E-2,2.3221677E-2,4.761498E-2,8.99495E-3,5.169319E-2,-1.1736318E-2,-4.8741447E-3,-4.5772202E-2,2.7900815E-2,-3.5317093E-2,2.2446685E-2,5.430261E-2,-5.7773866E-2,-8.978132E-3,3.3909705E-2,-2.6968136E-2,5.7618063E-2,1.4135919E-2,-1.3069229E-2,-6.249338E-2,3.9692957E-2,-2.8278798E-2,2.8513173E-2,-1.3517732E-2,-5.887076E-2,-1.548222E-2],"categories":[],"categories_nodes":[],"categories_segments":[],"categories_sizes":[],"default_left":[0,0,0,0,0,0,0,0,0,0,0,0,0,0,0,0,0,0,0,0,0,0,0,0,0,0,0,0,0,0,0,0,0,0,0,0,0,0,0,0,0,0,0,0,0,0,0,0,0,0,0,0,0,0,0,0,0,0,0,0,0,0,0,0,0,0,0,0,0,0,0,0,0,0,0,0,0,0,0],"id":16,"left_children":[1,3,5,7,9,11,13,15,17,19,21,23,25,27,29,31,33,35,37,39,41,43,-1,-1,-1,45,-1,47,-1,49,-1,-1,51,53,55,57,-1,-1,-1,-1,59,61,-1,63,65,67,69,71,73,75,77,-1,-1,-1,-1,-1,-1,-1,-1,-1,-1,-1,-1,-1,-1,-1,-1,-1,-1,-1,-1,-1,-1,-1,-1,-1,-1,-1,-1],"loss_changes":[4.579875E2,9.5728516E1,3.448633E1,1.2411133E1,5.5978004E1,4.692339E0,1.8963196E1,6.2294617E0,1.1990357E1,4.7639465E-1,3.569014E1,1.7437923E0,4.406193E0,1.2054438E1,1.6387634E0,1.51135845E1,1.9768982E0,1.046601E1,2.675743E-1,2.1983719E-1,2.0678172E0,3.7727E1,0E0,0E0,0E0,1.6755972E0,0E0,1.2416716E1,0E0,4.5974045E0,0E0,0E0,1.5701976E0,1.484375E-1,1.4296589E0,2.1088064E0,0E0,0E0,0E0,0E0,4.6857357E-1,1.8101875E0,0E0,1.102E1,5.54739E0,4.092704E0,4.302311E-1,4.184842E0,1.1492295E1,1.0389793E0,1.3057709E0,0E0,0E0,0E0,0E0,0E0,0E0,0E0,0E0,0E0,0E0,0E0,0E0,0E0,0E0,0E0,0E0,0E0,0E0,0E0,0E0,0E0,0E0,0E0,0E0,0E0,0E0,0E0,0E0],"parents":[2147483647,0,0,1,1,2,2,3,3,4,4,5,5,6,6,7,7,8,8,9,9,10,10,11,11,12,12,13,13,14,14,15,15,16,16,17,17,18,18,19,19,20,20,21,21,25,25,27,27,29,29,32,32,33,33,34,34,35,35,40,40,41,41,43,43,44,44,45,45,46,46,47,47,48,48,49,49,50,50],"right_children":[2,4,6,8,10,12,14,16,18,20,22,24,26,28,30,32,34,36,38,40,42,44,-1,-1,-1,46,-1,48,-1,50,-1,-1,52,54,56,58,-1,-1,-1,-1,60,62,-1,64,66,68,70,72,74,76,78,-1,-1,-1,-1,-1,-1,-1,-1,-1,-1,-1,-1,-1,-1,-1,-1,-1,-1,-1,-1,-1,-1,-1,-1,-1,-1,-1,-1],"split_conditions":[1E0,1.2501E3,7.903067E1,1E0,6.56E1,1.97E1,1E0,3.866381E1,6.495E1,1E0,1E0,1E0,1E0,1E0,1E0,1.4455E2,1E0,2.4283014E2,1.09065E3,5.625E1,1E0,1E0,-5.9068214E-2,-4.5405656E-2,1.45421745E-2,2.04E1,-4.4725064E-2,7.928374E1,-6.4422764E-2,1.2346713E3,-6.288357E-2,5.680236E-2,6.559E2,1E0,5.1125E2,1E0,-6.1924096E-2,5.4677278E-2,1.1720813E-2,-6.9952E-2,5.855E1,2.5003325E3,-5.1439017E-2,9.385E1,9.653246E1,2.02E1,1E0,1.20015E3,4.5779E3,3.106E2,1.0256732E2,-5.073743E-2,1.6261804E-3,6.074533E-2,2.3221677E-2,4.761498E-2,8.99495E-3,5.169319E-2,-1.1736318E-2,-4.8741447E-3,-4.5772202E-2,2.7900815E-2,-3.5317093E-2,2.2446685E-2,5.430261E-2,-5.7773866E-2,-8.978132E-3,3.3909705E-2,-2.6968136E-2,5.7618063E-2,1.4135919E-2,-1.3069229E-2,-6.249338E-2,3.9692957E-2,-2.8278798E-2,2.8513173E-2,-1.3517732E-2,-5.887076E-2,-1.548222E-2],"split_indices":[10,15,15,3,14,14,7,14,14,11,19,3,19,19,8,15,7,15,15,14,13,18,0,0,0,14,0,14,0,15,0,0,15,18,15,21,0,0,0,0,14,15,0,14,14,14,13,15,15,15,14,0,0,0,0,0,0,0,0,0,0,0,0,0,0,0,0,0,0,0,0,0,0,0,0,0,0,0,0],"split_type":[0,0,0,0,0,0,0,0,0,0,0,0,0,0,0,0,0,0,0,0,0,0,0,0,0,0,0,0,0,0,0,0,0,0,0,0,0,0,0,0,0,0,0,0,0,0,0,0,0,0,0,0,0,0,0,0,0,0,0,0,0,0,0,0,0,0,0,0,0,0,0,0,0,0,0,0,0,0,0],"sum_hessian":[7.0866174E2,4.2572406E2,2.829377E2,2.4767767E2,1.7804637E2,2.2586924E1,2.6035077E2,2.2749782E2,2.0179867E1,2.9162315E1,1.4888406E2,4.5539045E0,1.8033018E1,5.6707726E1,2.0364305E2,1.7952518E1,2.0954529E2,1.0224368E1,9.955498E0,2.0474367E1,8.687948E0,1.3611017E2,1.27739E1,3.431838E0,1.1220664E0,1.667019E1,1.3628278E0,4.1753826E1,1.4953903E1,2.640998E1,1.7723308E2,1.2111839E1,5.8406796E0,1.9932658E2,1.0218711E1,4.4171953E0,5.807173E0,8.919694E0,1.0358038E0,1.3867303E1,6.6070633E0,2.6062725E0,6.081676E0,1.1277616E2,2.3334002E1,1.094928E1,5.7209115E0,1.823942E1,2.3514404E1,4.6988754E0,2.1711105E1,3.904375E0,1.9363046E0,1.9743427E2,1.8923112E0,5.5424533E0,4.676258E0,2.9206843E0,1.496511E0,1.0723343E0,5.534729E0,1.6002741E0,1.0059984E0,6.087503E1,5.190113E1,9.983345E0,1.33506565E1,7.79575E0,3.1535294E0,4.1740503E0,1.5468615E0,7.959305E0,1.0280115E1,1.360986E1,9.904544E0,1.1793144E0,3.519561E0,1.8862762E1,2.848344E0],"tree_param":{"num_deleted":"0","num_feature":"23","num_nodes":"79","size_leaf_vector":"1"}},{"base_weights":[-5.515467E-4,6.30846E-1,-9.5578265E-1,1.0255455E0,-1.21820636E-1,1.2387815E-1,-1.0690603E0,1.1952292E0,7.4643296E-1,3.096182E-1,-6.477702E-1,2.7879095E-1,-5.4361917E-2,-1.203761E0,-5.2433735E-1,6.1120648E-2,5.0687414E-1,-4.4969615E-1,9.226918E-1,-1.224411E0,5.066276E-1,-5.6032952E-2,-3.9391515E-1,5.0823998E-2,3.380364E-2,-8.93234E-1,-6.259162E-2,4.388081E-1,-1.0341035E0,-1.5749108E-2,6.939132E-1,2.4277785E-1,-1.0397457E0,9.67866E-1,-3.1116694E-1,-2.1885127E-2,-6.70931E-2,7.722728E-1,-4.1016403E-1,-7.56233E-2,-8.810473E-1,4.9671176E-1,-8.4016585E-1,7.3674165E-2,-5.994753E-2,5.690114E-1,-4.119465E-2,-4.4762838E-1,-6.13795E-2,4.246795E-2,-2.209725E-3,-5.416488E-3,4.1641798E-2,-1.16939545E-2,-7.4581675E-2,5.3530883E-2,3.7404463E-2,-4.6985704E-2,1.4177975E-2,4.1612737E-2,-4.368155E-2,-5.2658666E-2,2.960983E-2,-2.5654456E-2,1.6401384E-2,-1.9788455E-2,-5.7032324E-2,-8.799865E-3,3.475633E-2,-5.9726812E-2,9.587771E-3,1.908272E-2,-1.9098049E-2,-3.846511E-4,4.0654834E-2,5.076171E-3,-5.052209E-2],"categories":[],"categories_nodes":[],"categories_segments":[],"categories_sizes":[],"default_left":[0,0,0,0,0,0,0,0,0,0,0,0,0,0,0,0,0,0,0,0,0,0,0,0,0,0,0,0,0,0,0,0,0,0,0,0,0,0,0,0,0,0,0,0,0,0,0,0,0,0,0,0,0,0,0,0,0,0,0,0,0,0,0,0,0,0,0,0,0,0,0,0,0,0,0,0,0],"id":17,"left_children":[1,3,5,7,9,11,13,15,17,19,21,23,-1,25,27,-1,29,31,33,35,37,-1,39,-1,41,43,-1,45,47,-1,49,51,53,55,57,-1,-1,59,61,63,65,67,69,71,-1,73,-1,75,-1,-1,-1,-1,-1,-1,-1,-1,-1,-1,-1,-1,-1,-1,-1,-1,-1,-1,-1,-1,-1,-1,-1,-1,-1,-1,-1,-1,-1],"loss_changes":[4.1607285E2,1.2350955E2,3.3707504E1,1.201651E1,3.2823875E1,5.3621025E0,1.7606995E1,2.5211334E0,2.270248E1,2.469419E1,7.3748913E0,4.429974E0,0E0,1.8450928E0,2.551878E1,0E0,1.4613826E0,6.074662E0,5.455017E0,2.773819E-1,1.7680958E1,0E0,6.7415986E0,0E0,8.338094E0,8.9865E0,0E0,3.489068E0,3.2723923E0,0E0,8.290174E-1,1.6163527E0,2.521824E0,1.2189102E0,1.7701231E0,0E0,0E0,6.2189064E0,1.1368626E1,5.0510526E0,1.7227736E0,1.9145956E0,2.843967E0,1.2927207E0,0E0,2.4337268E0,0E0,3.1713705E0,0E0,0E0,0E0,0E0,0E0,0E0,0E0,0E0,0E0,0E0,0E0,0E0,0E0,0E0,0E0,0E0,0E0,0E0,0E0,0E0,0E0,0E0,0E0,0E0,0E0,0E0,0E0,0E0,0E0],"parents":[2147483647,0,0,1,1,2,2,3,3,4,4,5,5,6,6,7,7,8,8,9,9,10,10,11,11,13,13,14,14,16,16,17,17,18,18,19,19,20,20,22,22,24,24,25,25,27,27,28,28,30,30,31,31,32,32,33,33,34,34,37,37,38,38,39,39,40,40,41,41,42,42,43,43,45,45,47,47],"right_children":[2,4,6,8,10,12,14,16,18,20,22,24,-1,26,28,-1,30,32,34,36,38,-1,40,-1,42,44,-1,46,48,-1,50,52,54,56,58,-1,-1,60,62,64,66,68,70,72,-1,74,-1,76,-1,-1,-1,-1,-1,-1,-1,-1,-1,-1,-1,-1,-1,-1,-1,-1,-1,-1,-1,-1,-1,-1,-1,-1,-1,-1,-1,-1,-1],"split_conditions":[1E0,2.6E1,4E0,8E0,1E0,1E0,1E0,1E0,6.559E2,1.9530652E3,1E0,1E0,-5.4361917E-2,1E0,4.9E1,6.1120648E-2,1E0,1E1,1E0,8.558046E2,5.6E1,-5.6032952E-2,6.2E1,5.0823998E-2,2.445E1,2.3E1,-6.259162E-2,1E0,1E0,-1.5749108E-2,1E0,6.099E2,4.8605E2,1E0,1E0,-2.1885127E-2,-6.70931E-2,1E0,6.2794497E3,4.342384E3,1E0,1E0,5.6876766E1,1E0,-5.994753E-2,1E0,-4.119465E-2,1E0,-6.13795E-2,4.246795E-2,-2.209725E-3,-5.416488E-3,4.1641798E-2,-1.16939545E-2,-7.4581675E-2,5.3530883E-2,3.7404463E-2,-4.6985704E-2,1.4177975E-2,4.1612737E-2,-4.368155E-2,-5.2658666E-2,2.960983E-2,-2.5654456E-2,1.6401384E-2,-1.9788455E-2,-5.7032324E-2,-8.799865E-3,3.475633E-2,-5.9726812E-2,9.587771E-3,1.908272E-2,-1.9098049E-2,-3.846511E-4,4.0654834E-2,5.076171E-3,-5.052209E-2],"split_indices":[10,4,4,4,8,19,16,7,15,15,16,17,0,8,4,0,5,4,18,15,4,0,4,0,15,4,0,19,9,0,9,15,15,0,12,0,0,19,15,15,9,22,15,12,0,12,0,2,0,0,0,0,0,0,0,0,0,0,0,0,0,0,0,0,0,0,0,0,0,0,0,0,0,0,0,0,0],"split_type":[0,0,0,0,0,0,0,0,0,0,0,0,0,0,0,0,0,0,0,0,0,0,0,0,0,0,0,0,0,0,0,0,0,0,0,0,0,0,0,0,0,0,0,0,0,0,0,0,0,0,0,0,0,0,0,0,0,0,0,0,0,0,0,0,0,0,0,0,0,0,0,0,0,0,0,0,0],"sum_hessian":[6.878556E2,4.143285E2,2.7352713E2,2.7155966E2,1.4276883E2,2.5964394E1,2.4756273E2,1.6684543E2,1.0471422E2,7.865725E1,6.411159E1,2.3702442E1,2.2619512E0,1.9751164E2,5.0051086E1,1.5976048E2,7.0849504E0,1.3249438E1,9.146478E1,8.358459E0,7.029879E1,2.1201761E1,4.2909824E1,5.124073E0,1.857837E1,2.910207E1,1.6840958E2,1.7370564E1,3.2680523E1,1.186664E0,5.8982863E0,6.3664303E0,6.883008E0,8.84423E1,3.022481E0,1.6997687E0,6.6586905E0,5.462775E1,1.5671042E1,2.6651194E1,1.625863E1,1.2427605E1,6.150765E0,7.173386E0,2.1928684E1,1.6244848E1,1.1257155E0,8.929099E0,2.3751423E1,4.747695E0,1.1505915E0,4.503237E0,1.8631934E0,3.018168E0,3.8648398E0,5.7628143E1,3.0814156E1,1.1874381E0,1.8350428E0,5.3183907E1,1.4438417E0,9.515929E0,6.1551137E0,1.2659765E1,1.3991427E1,6.5461717E0,9.712459E0,2.8563542E0,9.57125E0,4.4611754E0,1.6895896E0,4.377109E0,2.796277E0,5.118876E0,1.1125973E1,4.934243E0,3.994856E0],"tree_param":{"num_deleted":"0","num_feature":"23","num_nodes":"77","size_leaf_vector":"1"}},{"base_weights":[-2.8679108E-3,6.296048E-1,-9.187076E-1,1.0322708E0,-1.1740917E-1,5.1757455E-1,-1.003794E0,6.583319E-1,1.1593928E0,-8.344137E-1,3.1217146E-1,-4.3962773E-2,7.016185E-1,-4.970965E-1,-1.1512595E0,5.6721058E-2,8.970607E-2,6.07358E-2,9.8501855E-1,-5.153349E-1,-6.1396677E-2,5.245208E-1,-6.412745E-2,-3.398325E-2,9.02624E-1,-1.7804977E-1,-1.1771153E0,-1.199346E0,-8.3151764E-1,4.3973997E-1,-6.3001744E-2,6.51396E-1,5.780181E-2,-1.0082837E0,-1.3149825E-1,7.5270915E-1,-8.649173E-2,6.227949E-2,4.309384E-1,-6.176567E-1,6.4619803E-1,-6.300946E-2,-5.7758415E-1,-1.0547407E0,-6.376096E-2,4.4661763E-1,-9.56549E-1,-1.914682E-2,3.501683E-2,-1.6220143E-2,3.7262704E-2,-6.0599882E-2,-1.7463772E-2,1.49395615E-2,-4.1913714E-2,3.9828163E-2,-2.4958806E-2,-4.5306604E-2,3.9215285E-2,-1.2362143E-2,3.3877503E-2,-4.5859188E-2,1.9838737E-2,5.9508033E-2,7.880358E-3,-2.486836E-3,-3.7821002E-2,-5.5133652E-2,6.795543E-3,3.942741E-2,-6.5398472E-3,-2.7546642E-2,-5.734324E-2],"categories":[],"categories_nodes":[],"categories_segments":[],"categories_sizes":[],"default_left":[0,0,0,0,0,0,0,0,0,0,0,0,0,0,0,0,0,0,0,0,0,0,0,0,0,0,0,0,0,0,0,0,0,0,0,0,0,0,0,0,0,0,0,0,0,0,0,0,0,0,0,0,0,0,0,0,0,0,0,0,0,0,0,0,0,0,0,0,0,0,0,0,0],"id":18,"left_children":[1,3,5,7,9,11,13,15,17,19,21,-1,23,25,27,-1,29,-1,31,33,-1,35,-1,-1,37,39,41,43,45,47,-1,49,-1,51,53,55,57,-1,59,61,63,-1,65,67,-1,69,71,-1,-1,-1,-1,-1,-1,-1,-1,-1,-1,-1,-1,-1,-1,-1,-1,-1,-1,-1,-1,-1,-1,-1,-1,-1,-1],"loss_changes":[3.9717438E2,1.22120514E2,3.4749054E1,1.1768921E1,4.4291096E1,4.813614E0,1.9211304E1,1.8631744E1,6.8881226E-1,6.1263695E0,3.119103E1,0E0,4.7727065E0,1.3121497E1,2.144226E0,0E0,1.5966044E1,0E0,2.234352E0,5.8181467E0,0E0,1.1252697E1,0E0,0E0,1.6482582E0,1.5980477E1,2.4055481E-1,5.788574E-1,5.2169056E0,5.9804454E0,0E0,2.0766926E0,0E0,1.4049063E0,5.97761E0,3.6106758E0,1.6923458E1,0E0,1.3742648E0,9.040498E0,3.9175596E0,0E0,3.6003184E-1,3.9237976E0,0E0,7.650204E-1,1.5002365E0,0E0,0E0,0E0,0E0,0E0,0E0,0E0,0E0,0E0,0E0,0E0,0E0,0E0,0E0,0E0,0E0,0E0,0E0,0E0,0E0,0E0,0E0,0E0,0E0,0E0,0E0],"parents":[2147483647,0,0,1,1,2,2,3,3,4,4,5,5,6,6,7,7,8,8,9,9,10,10,12,12,13,13,14,14,16,16,18,18,19,19,21,21,24,24,25,25,26,26,27,27,28,28,29,29,31,31,33,33,34,34,35,35,36,36,38,38,39,39,40,40,42,42,43,43,45,45,46,46],"right_children":[2,4,6,8,10,12,14,16,18,20,22,-1,24,26,28,-1,30,-1,32,34,-1,36,-1,-1,38,40,42,44,46,48,-1,50,-1,52,54,56,58,-1,60,62,64,-1,66,68,-1,70,72,-1,-1,-1,-1,-1,-1,-1,-1,-1,-1,-1,-1,-1,-1,-1,-1,-1,-1,-1,-1,-1,-1,-1,-1,-1,-1],"split_conditions":[1E0,2.5E1,2E0,6.625E1,8.245939E1,1E0,1E0,4E0,1.1E1,4.8E1,1E0,-4.3962773E-2,1.945E1,5.5E1,9.385E1,5.6721058E-2,1E0,6.07358E-2,8.4853096E1,5.5E1,-6.1396677E-2,5.6E1,-6.412745E-2,-3.398325E-2,2.02E1,7.630318E1,9.52E1,3.2E1,2.8E1,3.866381E1,-6.3001744E-2,1.2E1,5.780181E-2,1E0,1E0,1E0,1.0256732E2,6.227949E-2,2.025E1,1E0,2.7E1,-6.300946E-2,9.894592E1,6.335E1,-6.376096E-2,1.0156162E2,6.2E1,-1.914682E-2,3.501683E-2,-1.6220143E-2,3.7262704E-2,-6.0599882E-2,-1.7463772E-2,1.49395615E-2,-4.1913714E-2,3.9828163E-2,-2.4958806E-2,-4.5306604E-2,3.9215285E-2,-1.2362143E-2,3.3877503E-2,-4.5859188E-2,1.9838737E-2,5.9508033E-2,7.880358E-3,-2.486836E-3,-3.7821002E-2,-5.5133652E-2,6.795543E-3,3.942741E-2,-6.5398472E-3,-2.7546642E-2,-5.734324E-2],"split_indices":[7,4,4,14,14,4,9,4,4,4,19,0,14,4,14,0,2,0,14,14,0,4,0,0,14,14,14,4,4,14,0,4,0,11,2,22,14,0,14,21,4,0,14,14,0,14,4,0,0,0,0,0,0,0,0,0,0,0,0,0,0,0,0,0,0,0,0,0,0,0,0,0,0],"split_type":[0,0,0,0,0,0,0,0,0,0,0,0,0,0,0,0,0,0,0,0,0,0,0,0,0,0,0,0,0,0,0,0,0,0,0,0,0,0,0,0,0,0,0,0,0,0,0,0,0,0,0,0,0,0,0,0,0,0,0,0,0,0,0,0,0,0,0,0,0,0,0,0,0],"sum_hessian":[6.836791E2,4.0458673E2,2.7909235E2,2.6263544E2,1.419513E2,1.5324655E1,2.6376767E2,6.819969E1,1.9443573E2,5.2830524E1,8.912077E1,1.3443187E0,1.3980336E1,6.0445526E1,2.0332216E2,3.657869E1,3.1621002E1,1.4307628E2,5.1359463E1,3.045012E1,2.2380404E1,7.9240395E1,9.880382E0,1.4734762E0,1.250686E1,4.200141E1,1.8444115E1,1.743504E2,2.8971746E1,2.5644669E1,5.9763336E0,1.9034918E1,3.2324543E1,1.2618168E1,1.7831953E1,5.7525177E1,2.1715214E1,6.2915287E0,6.215331E0,2.755551E1,1.4445901E1,1.5231594E1,3.2125206E0,6.512724E1,1.0922317E2,2.3523865E0,2.661936E1,6.0562515E0,1.9588417E1,1.4547065E0,1.7580212E1,8.997667E0,3.6205006E0,1.1442772E1,6.3891807E0,5.5929646E1,1.5955323E0,1.1165284E1,1.0549931E1,1.6567407E0,4.5585904E0,2.1348028E1,6.2074814E0,6.156161E0,8.28974E0,1.1364163E0,2.0761042E0,6.267789E1,2.4493494E0,1.2478107E0,1.1045758E0,9.744957E0,1.6874403E1],"tree_param":{"num_deleted":"0","num_feature":"23","num_nodes":"73","size_leaf_vector":"1"}},{"base_weights":[-1.4899127E-2,5.911071E-1,-9.007645E-1,1.0049182E0,-1.5808338E-1,2.5280395E-1,-1.00798E0,6.541844E-1,1.121629E0,-8.6464506E-1,2.5525084E-1,3.8070247E-1,-5.8643635E-2,-1.1582762E0,-4.5339411E-1,1.0261225E0,-1.00308366E-1,5.9932835E-2,8.956693E-1,-5.054064E-1,-6.587763E-2,6.590611E-1,-5.4042906E-1,7.0341074E-1,-1.6049103E-1,-8.420713E-1,-1.2072829E0,5.358451E-1,-8.468362E-1,1.0617343E0,-1.2250745E-2,-7.538923E-1,4.5207325E-1,-4.4336908E-2,9.7323513E-1,-1.20743245E-1,-5.762996E-2,9.143408E-1,1.3249889E-1,-2.2232307E-1,-6.0179602E-2,8.2691044E-1,-1.0342031E-2,-5.515144E-2,7.749525E-1,-4.638948E-2,-1.0863186E0,-6.4247495E-1,-6.104467E-2,9.841617E-1,1.9106355E-1,-3.8112164E-1,-5.45655E-2,5.4928895E-2,2.5532532E-2,8.3348696E-4,-6.850177E-2,3.4552436E-2,-3.8772725E-2,3.2632757E-2,5.5531144E-2,2.1003887E-2,-3.0935228E-2,5.2290946E-2,8.92271E-3,2.682361E-2,-1.9127116E-2,-4.7584206E-2,1.39149325E-2,2.3087762E-2,6.0346067E-2,5.2817263E-2,1.89198E-2,-3.061453E-2,4.027476E-2,-5.8001883E-2,2.2412357E-3,-5.203655E-2,3.1711083E-2,1.2705623E-2,5.4409903E-2,-3.2007065E-2,2.836139E-2,-4.9181275E-2,3.3625245E-2],"categories":[],"categories_nodes":[],"categories_segments":[],"categories_sizes":[],"default_left":[0,0,0,0,0,0,0,0,0,0,0,0,0,0,0,0,0,0,0,0,0,0,0,0,0,0,0,0,0,0,0,0,0,0,0,0,0,0,0,0,0,0,0,0,0,0,0,0,0,0,0,0,0,0,0,0,0,0,0,0,0,0,0,0,0,0,0,0,0,0,0,0,0,0,0,0,0,0,0,0,0,0,0,0,0],"id":19,"left_children":[1,3,5,7,9,11,13,15,17,19,21,23,-1,25,27,29,31,-1,33,35,-1,37,39,41,43,45,47,49,51,53,-1,55,57,-1,59,61,-1,63,65,67,-1,69,-1,-1,71,73,75,77,-1,79,81,83,-1,-1,-1,-1,-1,-1,-1,-1,-1,-1,-1,-1,-1,-1,-1,-1,-1,-1,-1,-1,-1,-1,-1,-1,-1,-1,-1,-1,-1,-1,-1,-1,-1],"loss_changes":[3.5323947E2,1.2129442E2,3.3311584E1,9.57518E0,4.1075348E1,4.736705E0,1.9875015E1,1.8421633E1,2.190918E0,7.7717056E0,2.8962414E1,4.0156107E0,0E0,1.9573975E0,2.1404327E1,2.2434464E0,8.451415E0,0E0,8.002335E0,7.464437E0,0E0,7.878174E0,6.1712446E0,1.765615E0,8.932501E0,5.5969696E0,4.7525024E-1,2.274191E0,4.0129547E0,3.0815125E-1,0E0,5.0862813E0,4.2908654E0,0E0,1.4756851E0,5.7197676E0,0E0,3.6747437E0,4.491319E0,8.244525E0,0E0,1.2036171E0,0E0,0E0,1.7891812E-1,4.286998E0,1.9022751E0,3.693707E0,0E0,2.3113918E-1,3.566519E0,1.0137519E1,0E0,0E0,0E0,0E0,0E0,0E0,0E0,0E0,0E0,0E0,0E0,0E0,0E0,0E0,0E0,0E0,0E0,0E0,0E0,0E0,0E0,0E0,0E0,0E0,0E0,0E0,0E0,0E0,0E0,0E0,0E0,0E0,0E0],"parents":[2147483647,0,0,1,1,2,2,3,3,4,4,5,5,6,6,7,7,8,8,9,9,10,10,11,11,13,13,14,14,15,15,16,16,18,18,19,19,21,21,22,22,23,23,24,24,25,25,26,26,27,27,28,28,29,29,31,31,32,32,34,34,35,35,37,37,38,38,39,39,41,41,44,44,45,45,46,46,47,47,49,49,50,50,51,51],"right_children":[2,4,6,8,10,12,14,16,18,20,22,24,-1,26,28,30,32,-1,34,36,-1,38,40,42,44,46,48,50,52,54,-1,56,58,-1,60,62,-1,64,66,68,-1,70,-1,-1,72,74,76,78,-1,80,82,84,-1,-1,-1,-1,-1,-1,-1,-1,-1,-1,-1,-1,-1,-1,-1,-1,-1,-1,-1,-1,-1,-1,-1,-1,-1,-1,-1,-1,-1,-1,-1,-1,-1],"split_conditions":[1E0,2.5E1,4E0,6.625E1,8.245939E1,1E0,1E0,7E0,1.1E1,1E0,5.6E1,2E0,-5.8643635E-2,1E0,3.4195E3,6.035E1,6.559E2,5.9932835E-2,8.918289E2,1E0,-6.587763E-2,1E0,6.8E1,1E0,5.6876766E1,9.4775E2,6E0,1.64275E3,5.9E1,1E0,-1.2250745E-2,1E0,1E0,-4.4336908E-2,8.3119995E1,1E0,-5.762996E-2,1E0,1E0,6.1576E3,-6.0179602E-2,1E0,-1.0342031E-2,-5.515144E-2,6.835E1,5.829704E2,7.945E1,1.178E2,-6.104467E-2,8.407888E1,1E0,5.32725E3,-5.45655E-2,5.4928895E-2,2.5532532E-2,8.3348696E-4,-6.850177E-2,3.4552436E-2,-3.8772725E-2,3.2632757E-2,5.5531144E-2,2.1003887E-2,-3.0935228E-2,5.2290946E-2,8.92271E-3,2.682361E-2,-1.9127116E-2,-4.7584206E-2,1.39149325E-2,2.3087762E-2,6.0346067E-2,5.2817263E-2,1.89198E-2,-3.061453E-2,4.027476E-2,-5.8001883E-2,2.2412357E-3,-5.203655E-2,3.1711083E-2,1.2705623E-2,5.4409903E-2,-3.2007065E-2,2.836139E-2,-4.9181275E-2,3.3625245E-2],"split_indices":[7,4,4,14,14,20,16,4,4,8,4,4,0,10,15,14,15,0,15,9,0,8,4,6,15,15,4,15,4,10,0,6,21,0,14,6,0,10,9,15,0,0,0,0,15,15,14,15,0,14,13,15,0,0,0,0,0,0,0,0,0,0,0,0,0,0,0,0,0,0,0,0,0,0,0,0,0,0,0,0,0,0,0,0,0],"split_type":[0,0,0,0,0,0,0,0,0,0,0,0,0,0,0,0,0,0,0,0,0,0,0,0,0,0,0,0,0,0,0,0,0,0,0,0,0,0,0,0,0,0,0,0,0,0,0,0,0,0,0,0,0,0,0,0,0,0,0,0,0,0,0,0,0,0,0,0,0,0,0,0,0,0,0,0,0,0,0,0,0,0,0,0,0],"sum_hessian":[6.56006E2,3.8973044E2,2.6627554E2,2.5083937E2,1.3889107E2,2.2528269E1,2.4374728E2,6.4278336E1,1.8656104E2,5.08593E1,8.803177E1,2.1346249E1,1.1820208E0,1.9091864E2,5.2828648E1,4.2813023E1,2.1465311E1,1.359218E2,5.0639233E1,2.9542551E1,2.1316748E1,5.8509636E1,2.9522139E1,1.3184639E1,8.16161E0,2.8058731E1,1.6285991E2,1.4929406E1,3.7899242E1,4.1806522E1,1.0065012E0,9.664896E0,1.1800414E1,1.6767473E0,4.8962486E1,1.9273682E1,1.0268868E1,3.8909634E1,1.96E1,2.0854094E1,8.668044E0,1.1690123E1,1.4945163E0,3.9761522E0,4.185457E0,6.8696084E0,2.1189123E1,4.9664493E0,1.5789345E2,5.684042E0,9.245364E0,1.3927246E1,2.3971996E1,3.825541E1,3.5511122E0,4.726623E0,4.938273E0,1.0243288E1,1.5571259E0,1.6413576E1,3.254891E1,9.314205E0,9.959476E0,3.265425E1,6.2553816E0,1.0961063E1,8.638936E0,8.121211E0,1.27328825E1,7.091225E0,4.598898E0,1.4750093E0,2.7104478E0,4.296635E0,2.5729735E0,1.9868694E1,1.3204293E0,3.9264483E0,1.040001E0,1.1383678E0,4.5456743E0,2.6618192E0,6.5835447E0,8.902751E0,5.024494E0],"tree_param":{"num_deleted":"0","num_feature":"23","num_nodes":"85","size_leaf_vector":"1"}},{"base_weights":[-2.7696626E-2,5.555354E-1,-8.8607174E-1,9.6048117E-1,-1.4477697E-1,2.2798301E-1,-1.0112685E0,1.0290376E0,8.0528475E-2,-7.867182E-1,2.7166328E-1,-5.4206282E-2,3.948401E-1,-1.1518476E0,-4.8903123E-1,7.457507E-1,1.1186922E0,9.8435116E-1,-5.8339465E-1,-4.2902052E-1,-5.7191152E-2,6.360836E-1,-4.3549117E-1,5.421219E-1,-4.2846348E-2,-9.8556054E-1,-6.069651E-2,3.7143523E-1,-9.595758E-1,1.0424047E0,1.344669E-1,5.940461E-2,9.770527E-1,9.633892E-3,5.376428E-2,-1.2132145E0,2.5466895E-1,-1.0834159E0,5.612119E-1,8.3093846E-1,-3.7694842E-1,-6.612211E-2,-1.2190995E-1,-4.351436E-2,6.7015177E-1,-1.0467124E0,2.7254019E-2,7.4136055E-1,-8.461691E-2,-4.719412E-1,-5.714221E-2,5.425194E-2,-1.060456E-2,-3.2371543E-2,3.4880172E-2,-1.1788992E-2,5.2245673E-2,-6.61618E-2,-1.7558595E-2,3.2285E-2,-8.722431E-3,5.932421E-3,-6.1731994E-2,4.713385E-2,-2.1302423E-2,4.672831E-2,2.0455595E-3,-4.187171E-2,4.052994E-2,1.2447464E-2,-5.403466E-2,4.8345726E-2,6.197075E-3,-2.4415044E-2,-5.7551175E-2,6.751551E-3,5.7757016E-2,-4.410688E-2,1.929093E-2,-5.994401E-2,1.14601115E-2],"categories":[],"categories_nodes":[],"categories_segments":[],"categories_sizes":[],"default_left":[0,0,0,0,0,0,0,0,0,0,0,0,0,0,0,0,0,0,0,0,0,0,0,0,0,0,0,0,0,0,0,0,0,0,0,0,0,0,0,0,0,0,0,0,0,0,0,0,0,0,0,0,0,0,0,0,0,0,0,0,0,0,0,0,0,0,0,0,0,0,0,0,0,0,0,0,0,0,0,0,0],"id":20,"left_children":[1,3,5,7,9,11,13,15,17,19,21,-1,23,25,27,29,31,33,35,37,-1,39,41,43,-1,45,-1,47,49,51,53,-1,55,-1,-1,57,59,61,63,65,67,-1,69,-1,71,73,-1,75,77,79,-1,-1,-1,-1,-1,-1,-1,-1,-1,-1,-1,-1,-1,-1,-1,-1,-1,-1,-1,-1,-1,-1,-1,-1,-1,-1,-1,-1,-1,-1,-1],"loss_changes":[3.2295636E2,1.090765E2,3.663031E1,1.4608353E1,3.8070442E1,6.378991E0,1.667427E1,4.9016724E0,1.1787568E1,6.659397E0,2.2602821E1,0E0,5.045555E0,7.057953E-1,2.1222755E1,1.0249107E1,5.0579834E-1,3.8930798E-1,6.3267293E0,1.9766222E1,0E0,1.1678831E1,8.198336E0,4.714202E0,0E0,5.756653E0,0E0,3.258041E0,2.4630413E0,2.2852325E0,9.199504E0,0E0,5.2986794E0,0E0,0E0,1.691227E-1,1.0721592E0,3.4444218E0,5.0800533E0,3.9407425E0,6.1343913E0,0E0,8.556387E0,0E0,3.3669443E0,2.561245E0,0E0,2.4933887E0,3.8596196E0,5.820567E0,0E0,0E0,0E0,0E0,0E0,0E0,0E0,0E0,0E0,0E0,0E0,0E0,0E0,0E0,0E0,0E0,0E0,0E0,0E0,0E0,0E0,0E0,0E0,0E0,0E0,0E0,0E0,0E0,0E0,0E0,0E0],"parents":[2147483647,0,0,1,1,2,2,3,3,4,4,5,5,6,6,7,7,8,8,9,9,10,10,12,12,13,13,14,14,15,15,16,16,17,17,18,18,19,19,21,21,22,22,23,23,25,25,27,27,28,28,29,29,30,30,32,32,35,35,36,36,37,37,38,38,39,39,40,40,42,42,44,44,45,45,47,47,48,48,49,49],"right_children":[2,4,6,8,10,12,14,16,18,20,22,-1,24,26,28,30,32,34,36,38,-1,40,42,44,-1,46,-1,48,50,52,54,-1,56,-1,-1,58,60,62,64,66,68,-1,70,-1,72,74,-1,76,78,80,-1,-1,-1,-1,-1,-1,-1,-1,-1,-1,-1,-1,-1,-1,-1,-1,-1,-1,-1,-1,-1,-1,-1,-1,-1,-1,-1,-1,-1,-1,-1],"split_conditions":[1E0,2.5E1,4E0,1E0,8.207368E1,1.94E1,1E0,6.625E1,5E0,4.4E1,5.6E1,-5.4206282E-2,1E0,2.6E1,4.9E1,6E0,9E0,5.067904E1,6.495E1,2.2436133E3,-5.7191152E-2,1E0,9.335E1,1E0,-4.2846348E-2,7.056601E1,-6.069651E-2,3.0624175E3,1E0,2.4283014E2,6.559E2,5.940461E-2,7.09E1,9.633892E-3,5.376428E-2,1E0,1.1676E3,8.655821E2,7.905E1,1E0,5.32725E3,-6.612211E-2,6.9E1,-4.351436E-2,2E0,1E0,2.7254019E-2,1E0,3.8E1,1.00956764E2,-5.714221E-2,5.425194E-2,-1.060456E-2,-3.2371543E-2,3.4880172E-2,-1.1788992E-2,5.2245673E-2,-6.61618E-2,-1.7558595E-2,3.2285E-2,-8.722431E-3,5.932421E-3,-6.1731994E-2,4.713385E-2,-2.1302423E-2,4.672831E-2,2.0455595E-3,